{"learner":{"attributes":{"scikit_learn":"{\"_estimator_type\": \"regressor\"}"},"feature_names":[],"feature_types":[],"gradient_booster":{"model":{"gbtree_model_param":{"num_parallel_tree":"1","num_trees":"100"},"iteration_indptr":[0,1,2,3,4,5,6,7,8,9,10,11,12,13,14,15,16,17,18,19,20,21,22,23,24,25,26,27,28,29,30,31,32,33,34,35,36,37,38,39,40,41,42,43,44,45,46,47,48,49,50,51,52,53,54,55,56,57,58,59,60,61,62,63,64,65,66,67,68,69,70,71,72,73,74,75,76,77,78,79,80,81,82,83,84,85,86,87,88,89,90,91,92,93,94,95,96,97,98,99,100],"tree_info":[0,0,0,0,0,0,0,0,0,0,0,0,0,0,0,0,0,0,0,0,0,0,0,0,0,0,0,0,0,0,0,0,0,0,0,0,0,0,0,0,0,0,0,0,0,0,0,0,0,0,0,0,0,0,0,0,0,0,0,0,0,0,0,0,0,0,0,0,0,0,0,0,0,0,0,0,0,0,0,0,0,0,0,0,0,0,0,0,0,0,0,0,0,0,0,0,0,0,0,0],"trees":[{"base_weights":[-0E0,2.65E-1,-2.8392856E0,-1.1071428E0,7.8409094E-1,-1.0031251E0,2.8125001E-2,-1.471875E0,9.28125E-1,2.3888888E0,4.6010637E-1,1.4583334E0,-1.8784722E0,2.2500001E-1,1.065E0,-1.7386364E0,1.1013514E0,2.8125001E-2,6.28125E-1,-7.109375E-1,-2.5568182E0,-1.09375E-1,-2.3359375E0,1.5253906E0,-1.34375E0,-5.03125E-1,4.3750003E-1,-6.25E-2,-9.166667E-1,1.7812501E-1,-1.6250001E-1,-4.0312502E-1,-1.0625001E0,5.2862906E-1,-8.7187505E-1,-5.55E-1,1.7812501E-1],"categories":[],"categories_nodes":[],"categories_segments":[],"categories_sizes":[],"default_left":[0,0,0,0,0,0,0,0,0,0,0,0,0,0,0,0,0,0,0,0,0,0,0,0,0,0,0,0,0,0,0,0,0,0,0,0,0],"id":0,"left_children":[1,3,5,7,9,-1,-1,11,-1,13,15,17,19,-1,-1,21,23,-1,-1,25,27,29,31,33,35,-1,-1,-1,-1,-1,-1,-1,-1,-1,-1,-1,-1],"loss_changes":[6.169768E1,5.4288116E1,1.0670757E1,3.6729828E1,2.7496994E1,0E0,0E0,2.656773E1,0E0,1.4463886E1,6.818169E1,2.4049478E0,1.2438129E1,0E0,0E0,1.0449265E1,4.041205E1,0E0,0E0,1.9212402E1,1.2247475E1,1.5374348E0,4.8113594E0,3.8688988E1,6.983593E0,0E0,0E0,0E0,0E0,0E0,0E0,0E0,0E0,0E0,0E0,0E0,0E0],"parents":[2147483647,0,0,1,1,2,2,3,3,4,4,7,7,9,9,10,10,11,11,12,12,15,15,16,16,19,19,20,20,21,21,22,22,23,23,24,24],"right_children":[2,4,6,8,10,-1,-1,12,-1,14,16,18,20,-1,-1,22,24,-1,-1,26,28,30,32,34,36,-1,-1,-1,-1,-1,-1,-1,-1,-1,-1,-1,-1],"split_conditions":[9.4013345E-1,2.539154E-1,8.206395E-1,9.309291E-1,1.2016465E-1,-1.0031251E0,2.8125001E-2,5.5871155E-2,9.28125E-1,4.393365E-1,2.5299016E-1,3.966516E-1,2.5620693E-1,2.2500001E-1,1.065E0,3.7673897E-1,8.509284E-1,2.8125001E-2,6.28125E-1,2.1844044E-1,2.4108483E-1,1.5504162E-1,7.4771875E-1,9.8528606E-1,5.685203E-1,-5.03125E-1,4.3750003E-1,-6.25E-2,-9.166667E-1,1.7812501E-1,-1.6250001E-1,-4.0312502E-1,-1.0625001E0,5.2862906E-1,-8.7187505E-1,-5.55E-1,1.7812501E-1],"split_indices":[0,3,2,1,0,0,0,4,0,2,0,0,0,0,0,3,4,0,0,0,1,0,2,2,2,0,0,0,0,0,0,0,0,0,0,0,0],"split_type":[0,0,0,0,0,0,0,0,0,0,0,0,0,0,0,0,0,0,0,0,0,0,0,0,0,0,0,0,0,0,0,0,0,0,0,0,0],"sum_hessian":[8E1,7.4E1,6E0,2E1,5.4E1,5E0,1E0,1.9E1,1E0,8E0,4.6E1,2E0,1.7E1,4E0,4E0,1E1,3.6E1,1E0,1E0,7E0,1E1,3E0,7E0,3.1E1,5E0,5E0,2E0,2E0,8E0,1E0,2E0,5E0,2E0,3E1,1E0,4E0,1E0],"tree_param":{"num_deleted":"0","num_feature":"5","num_nodes":"37","size_leaf_vector":"1"}},{"base_weights":[-1.624145E-2,1.809593E-1,-2.1267865E0,-7.307525E-1,5.4904634E-1,-7.52344E-1,2.3906136E-2,-1.0159967E0,7.889062E-1,-6.709567E-1,8.4156877E-1,1.2395834E0,-1.3186674E0,-1.1886961E0,3.3177415E-1,1.3890643E0,-3.0952695E-1,2.3906136E-2,5.339064E-1,-8.3723885E-1,-2.2222226E0,2.4883062E-1,-1.544642E0,9.554872E-1,2.4619656E0,-1.6592364E0,1.0788734E0,-4.2415968E-1,-1.7589407E-2,-8.7656265E-1,-1.6458341E-1,-5.837439E-1,-6.822587E-2,4.8686203E-1,-2.4054182E-1,8.551382E-1,-3.8624957E-2,-7.7958167E-1,2.3177414E-1,5.8164054E-1,-7.4109364E-1],"categories":[],"categories_nodes":[],"categories_segments":[],"categories_sizes":[],"default_left":[0,0,0,0,0,0,0,0,0,0,0,0,0,0,0,0,0,0,0,0,0,0,0,0,0,0,0,0,0,0,0,0,0,0,0,0,0,0,0,0,0],"id":1,"left_children":[1,3,5,7,9,-1,-1,11,-1,13,15,17,19,21,-1,23,25,-1,-1,27,29,-1,31,33,35,37,39,-1,-1,-1,-1,-1,-1,-1,-1,-1,-1,-1,-1,-1,-1],"loss_changes":[3.4097145E1,2.5570415E1,6.084919E0,2.3759762E1,1.9836084E1,0E0,0E0,1.5971254E1,0E0,1.1434111E1,2.8159624E1,1.7375774E0,6.404419E0,7.74629E0,0E0,1.1603188E1,2.9899164E1,0E0,0E0,6.2026243E0,5.4227085E0,0E0,3.784933E0,2.8275476E1,8.4188385E0,2.028262E1,2.9205805E1,0E0,0E0,0E0,0E0,0E0,0E0,0E0,0E0,0E0,0E0,0E0,0E0,0E0,0E0],"parents":[2147483647,0,0,1,1,2,2,3,3,4,4,7,7,9,9,10,10,11,11,12,12,13,13,15,15,16,16,19,19,20,20,22,22,23,23,24,24,25,25,26,26],"right_children":[2,4,6,8,10,-1,-1,12,-1,14,16,18,20,22,-1,24,26,-1,-1,28,30,-1,32,34,36,38,40,-1,-1,-1,-1,-1,-1,-1,-1,-1,-1,-1,-1,-1,-1],"split_conditions":[9.4013345E-1,2.5606832E-1,8.206395E-1,9.309291E-1,2.3598492E-1,-7.52344E-1,2.3906136E-2,5.5871155E-2,7.889062E-1,6.514848E-1,7.4417055E-1,3.966516E-1,5.899559E-1,1.7495492E-1,3.3177415E-1,6.816137E-1,8.471432E-1,2.3906136E-2,5.339064E-1,3.0777723E-1,5.912978E-1,2.4883062E-1,1.6465585E-1,4.356729E-1,8.112042E-1,4.052021E-1,9.8528606E-1,-4.2415968E-1,-1.7589407E-2,-8.7656265E-1,-1.6458341E-1,-5.837439E-1,-6.822587E-2,4.8686203E-1,-2.4054182E-1,8.551382E-1,-3.8624957E-2,-7.7958167E-1,2.3177414E-1,5.8164054E-1,-7.4109364E-1],"split_indices":[0,3,2,1,2,0,0,4,0,0,2,0,4,4,0,0,2,0,0,4,0,0,2,0,1,0,2,0,0,0,0,0,0,0,0,0,0,0,0,0,0],"split_type":[0,0,0,0,0,0,0,0,0,0,0,0,0,0,0,0,0,0,0,0,0,0,0,0,0,0,0,0,0,0,0,0,0,0,0,0,0,0,0,0,0],"sum_hessian":[8E1,7.4E1,6E0,2.1E1,5.3E1,5E0,1E0,2E1,1E0,1E1,4.3E1,2E0,1.8E1,8E0,2E0,2.9E1,1.4E1,1E0,1E0,1.3E1,5E0,1E0,7E0,2.2E1,7E0,7E0,7E0,7E0,6E0,3E0,2E0,5E0,2E0,1.6E1,6E0,6E0,1E0,5E0,2E0,6E0,1E0],"tree_param":{"num_deleted":"0","num_feature":"5","num_nodes":"41","size_leaf_vector":"1"}},{"base_weights":[-1.85346E-2,1.2864517E-1,-1.5928129E0,1.6272348E0,-1.6431536E-3,-1.8808597E0,2.032013E-2,-1.6241709E-2,7.3591006E-1,-8.0386186E-1,3.5857022E-1,-6.136876E-1,-1.5855475E-1,7.134562E-2,-7.8654386E-2,-4.095503E-1,-1.5903081E0,6.502013E-1,-1.2173142E0,-7.49611E-1,3.94175E-1,-6.426935E-1,-1.4019966E-1,7.6848745E-1,-6.299298E-1,-1.5697757E0,1.8748742E-1,-6.6759236E-2,-4.245889E-1,7.134562E-2,-1.3443547E-1,1.700401E-1,7.477181E-1,-1.6046886E-1,-5.630245E-1],"categories":[],"categories_nodes":[],"categories_segments":[],"categories_sizes":[],"default_left":[0,0,0,0,0,0,0,0,0,0,0,0,0,0,0,0,0,0,0,0,0,0,0,0,0,0,0,0,0,0,0,0,0,0,0],"id":2,"left_children":[1,3,5,7,9,11,-1,13,-1,15,17,-1,-1,-1,-1,19,21,23,25,27,-1,-1,29,31,-1,33,-1,-1,-1,-1,-1,-1,-1,-1,-1],"loss_changes":[1.8972763E1,1.4646329E1,3.475605E0,8.182925E0,2.0516134E1,2.5577354E-1,0E0,2.4980216E-1,0E0,6.1709948E0,2.3310768E1,0E0,0E0,0E0,0E0,1.036226E1,5.302902E0,1.5275532E1,6.175684E0,4.597226E0,0E0,0E0,4.557675E-1,1.2842588E1,0E0,1.2198906E0,0E0,0E0,0E0,0E0,0E0,0E0,0E0,0E0,0E0],"parents":[2147483647,0,0,1,1,2,2,3,3,4,4,5,5,7,7,9,9,10,10,15,15,16,16,17,17,18,18,19,19,22,22,23,23,25,25],"right_children":[2,4,6,8,10,12,-1,14,-1,16,18,-1,-1,-1,-1,20,22,24,26,28,-1,-1,30,32,-1,34,-1,-1,-1,-1,-1,-1,-1,-1,-1],"split_conditions":[9.4013345E-1,5.8193594E-2,8.206395E-1,4.393365E-1,2.715429E-1,8.0313975E-1,2.032013E-2,3.8834736E-2,7.3591006E-1,5.618667E-1,8.957636E-1,-6.136876E-1,-1.5855475E-1,7.134562E-2,-7.8654386E-2,2.3859686E-1,8.291642E-1,9.8528606E-1,9.438916E-1,7.217295E-1,3.94175E-1,-6.426935E-1,8.085333E-2,9.652518E-1,-6.299298E-1,2.0891872E-1,1.8748742E-1,-6.6759236E-2,-4.245889E-1,7.134562E-2,-1.3443547E-1,1.700401E-1,7.477181E-1,-1.6046886E-1,-5.630245E-1],"split_indices":[0,0,2,2,0,3,0,0,0,4,4,0,0,0,0,0,1,2,3,1,0,0,0,1,0,3,0,0,0,0,0,0,0,0,0],"split_type":[0,0,0,0,0,0,0,0,0,0,0,0,0,0,0,0,0,0,0,0,0,0,0,0,0,0,0,0,0,0,0,0,0,0,0],"sum_hessian":[8E1,7.4E1,6E0,5E0,6.9E1,5E0,1E0,2E0,3E0,2.1E1,4.8E1,4E0,1E0,1E0,1E0,1.5E1,6E0,4.1E1,7E0,1.3E1,2E0,4E0,2E0,4E1,1E0,6E0,1E0,8E0,5E0,1E0,1E0,3.7E1,3E0,2E0,4E0],"tree_param":{"num_deleted":"0","num_feature":"5","num_nodes":"35","size_leaf_vector":"1"}},{"base_weights":[-2.6239112E-2,1.4036608E0,-1.387807E-1,-5.1858905E-3,1.6913074E0,-2.0932422E0,-2.978581E-2,1.5029526E-1,5.590927E-1,-7.7312547E-1,-9.625712E-2,1.6943544E-1,-8.814636E-1,-5.0735617E-1,6.3472307E-1,-2.1319048E0,5.0104354E-2,-6.836107E-1,5.584128E-1,-9.433098E-1,9.1967386E-1,-1.11441426E-1,-7.229092E-1,1.2908901E0,-1.2007023E0,2.3827817E-1,-2.7976713E-1,-6.374216E-2,-3.1409466E-1,5.6327957E-1,1.8440042E-1,-1.7473212E-1,5.714499E-1,-7.0258486E-1,1.022337E-1],"categories":[],"categories_nodes":[],"categories_segments":[],"categories_sizes":[],"default_left":[0,0,0,0,0,0,0,0,0,0,0,0,0,0,0,0,0,0,0,0,0,0,0,0,0,0,0,0,0,0,0,0,0,0,0],"id":3,"left_children":[1,3,5,-1,7,9,11,-1,-1,-1,-1,13,15,17,19,21,23,25,-1,27,29,-1,-1,31,33,-1,-1,-1,-1,-1,-1,-1,-1,-1,-1],"loss_changes":[1.322958E1,2.4816208E0,1.6127651E1,0E0,9.201527E-2,2.6033459E0,1.253543E1,0E0,0E0,0E0,0E0,1.9216198E1,1.6415012E1,1.17099495E1,1.7055359E1,2.0390778E0,1.5517822E1,9.57055E0,0E0,2.3214865E-1,7.9032516E0,0E0,0E0,6.8600397E0,9.594143E0,0E0,0E0,0E0,0E0,0E0,0E0,0E0,0E0,0E0,0E0],"parents":[2147483647,0,0,1,1,2,2,4,4,5,5,6,6,11,11,12,12,13,13,14,14,15,15,16,16,17,17,19,19,20,20,23,23,24,24],"right_children":[2,4,6,-1,8,10,12,-1,-1,-1,-1,14,16,18,20,22,24,26,-1,28,30,-1,-1,32,34,-1,-1,-1,-1,-1,-1,-1,-1,-1,-1],"split_conditions":[9.1704145E-2,6.6235974E-2,1.0675607E-1,-5.1858905E-3,3.682187E-2,5.3937745E-1,8.009493E-1,1.5029526E-1,5.590927E-1,-7.7312547E-1,-9.625712E-2,2.952906E-1,8.471432E-1,9.818409E-1,2.0891872E-1,8.164319E-1,5.4254025E-1,2.2024105E-1,5.584128E-1,1.6967991E-1,3.080608E-1,-1.11441426E-1,-7.229092E-1,3.259589E-1,8.1638575E-1,2.3827817E-1,-2.7976713E-1,-6.374216E-2,-3.1409466E-1,5.6327957E-1,1.8440042E-1,-1.7473212E-1,5.714499E-1,-7.0258486E-1,1.022337E-1],"split_indices":[4,3,4,0,4,0,2,0,0,0,0,2,2,1,3,2,0,4,0,1,4,0,0,3,0,0,0,0,0,0,0,0,0,0,0],"split_type":[0,0,0,0,0,0,0,0,0,0,0,0,0,0,0,0,0,0,0,0,0,0,0,0,0,0,0,0,0,0,0,0,0,0,0],"sum_hessian":[8E1,5E0,7.5E1,1E0,4E0,3E0,7.2E1,1E0,3E0,2E0,1E0,5.9E1,1.3E1,2.4E1,3.5E1,5E0,8E0,2.3E1,1E0,5E0,3E1,1E0,4E0,4E0,4E0,3E0,2E1,1E0,4E0,6E0,2.4E1,1E0,3E0,2E0,2E0],"tree_param":{"num_deleted":"0","num_feature":"5","num_nodes":"35","size_leaf_vector":"1"}},{"base_weights":[-2.2273334E-2,1.0999292E0,-1.105752E-1,-4.407978E-3,3.977377E-1,-6.799461E-1,1.4933947E-1,-3.935285E-1,-7.66108E-1,1.3756977E0,2.1153118E-2,-5.629507E-1,4.746506E-1,5.901478E-1,-1.4852229E-1,2.3858349E-1,-7.516594E-1,-8.2546014E-1,7.5907946E-1,-4.1287744E-1,5.4341346E-1,-1.6313915E0,2.533493E-1,-3.687787E-2,-3.7840563E-1,5.976296E-2,3.6580324E-1,-2.2036E-2,-3.4746552E-1,3.510976E-2,3.1999108E-1,-9.4725326E-2,-5.494108E-1,2.6322672E-1,-4.300524E-1],"categories":[],"categories_nodes":[],"categories_segments":[],"categories_sizes":[],"default_left":[0,0,0,0,0,0,0,0,0,0,0,0,0,0,0,0,0,0,0,0,0,0,0,0,0,0,0,0,0,0,0,0,0,0,0],"id":4,"left_children":[1,3,5,-1,-1,7,9,11,-1,13,15,17,-1,-1,-1,19,21,23,25,27,29,31,33,-1,-1,-1,-1,-1,-1,-1,-1,-1,-1,-1,-1],"loss_changes":[8.148124E0,1.5299926E0,1.13486185E1,0E0,0E0,1.1875229E1,8.302626E0,8.254675E0,0E0,6.506339E0,8.412947E0,7.914543E0,0E0,0E0,0E0,7.9691706E0,1.0138836E1,5.357067E0,7.878473E-1,3.2037525E0,5.898667E0,1.0003366E0,7.5741243E0,0E0,0E0,0E0,0E0,0E0,0E0,0E0,0E0,0E0,0E0,0E0,0E0],"parents":[2147483647,0,0,1,1,2,2,5,5,6,6,7,7,9,9,10,10,11,11,15,15,16,16,17,17,18,18,19,19,20,20,21,21,22,22],"right_children":[2,4,6,-1,-1,8,10,12,-1,14,16,18,-1,-1,-1,20,22,24,26,28,30,32,34,-1,-1,-1,-1,-1,-1,-1,-1,-1,-1,-1,-1],"split_conditions":[9.1704145E-2,6.6235974E-2,3.2255077E-1,-4.407978E-3,3.977377E-1,2.9763517E-1,3.4507126E-1,9.309291E-1,-7.66108E-1,8.8035995E-1,8.009493E-1,2.539154E-1,4.746506E-1,5.901478E-1,-1.4852229E-1,3.4062457E-1,8.471432E-1,2.5620693E-1,5.612434E-1,8.0504465E-1,4.5726517E-1,8.164319E-1,9.8528606E-1,-3.687787E-2,-3.7840563E-1,5.976296E-2,3.6580324E-1,-2.2036E-2,-3.4746552E-1,3.510976E-2,3.1999108E-1,-9.4725326E-2,-5.494108E-1,2.6322672E-1,-4.300524E-1],"split_indices":[4,3,3,0,0,3,3,1,0,2,2,3,0,0,0,1,2,0,2,4,2,2,2,0,0,0,0,0,0,0,0,0,0,0,0],"split_type":[0,0,0,0,0,0,0,0,0,0,0,0,0,0,0,0,0,0,0,0,0,0,0,0,0,0,0,0,0,0,0,0,0,0,0],"sum_hessian":[8E1,5E0,7.5E1,1E0,4E0,2.3E1,5.2E1,2.1E1,2E0,4E0,4.8E1,2E1,1E0,3E0,1E0,3.8E1,1E1,1.7E1,3E0,1.2E1,2.6E1,5E0,5E0,7E0,1E1,2E0,1E0,9E0,3E0,1.5E1,1.1E1,1E0,4E0,4E0,1E0],"tree_param":{"num_deleted":"0","num_feature":"5","num_nodes":"35","size_leaf_vector":"1"}},{"base_weights":[-1.8944187E-2,1.081604E0,-7.513968E-2,4.141636E-1,2.7717018E-2,-3.5426608E-1,1.7254643E-1,-1.1991796E-1,-1.8301105E0,1.3643905E0,-6.399398E-2,-4.293243E-1,6.346491E-1,-3.7467957E-3,-6.844181E-1,1.4641896E-1,4.851927E-1,-7.645392E-1,4.165593E-1,2.3364596E-2,-6.5712905E-1,1.0935965E0,-8.0076027E-1,3.539629E-1,-1.3591865E0,7.1577173E-1,-5.006358E-1,-1.5564209E-1,1.14275455E-1,-8.664603E-2,-3.6685222E-1,3.3504155E-2,4.98123E-1,-3.353969E-1,-2.4945261E-2,-2.3160554E-2,2.4325849E-1,-1.8675843E-1,-5.914019E-1,2.717892E-1,-1.421339E-1,8.370581E-2,-2.1371122E-1],"categories":[],"categories_nodes":[],"categories_segments":[],"categories_sizes":[],"default_left":[0,0,0,0,0,0,0,0,0,0,0,0,0,0,0,0,0,0,0,0,0,0,0,0,0,0,0,0,0,0,0,0,0,0,0,0,0,0,0,0,0,0,0],"id":5,"left_children":[1,3,5,-1,-1,7,9,11,13,15,17,19,21,-1,-1,-1,-1,23,25,27,29,31,33,35,37,39,41,-1,-1,-1,-1,-1,-1,-1,-1,-1,-1,-1,-1,-1,-1,-1,-1],"loss_changes":[5.0907855E0,1.0553188E0,5.453715E0,0E0,0E0,1.2577408E1,1.1927923E1,7.9769096E0,4.072815E0,7.6212597E-1,1.2437851E1,2.490346E0,7.463482E0,0E0,0E0,0E0,0E0,1.0457815E1,6.395937E0,1.9423213E0,2.9805255E0,4.26707E0,5.899781E-1,1.2445917E0,3.2822628E0,4.275365E0,1.1892464E0,0E0,0E0,0E0,0E0,0E0,0E0,0E0,0E0,0E0,0E0,0E0,0E0,0E0,0E0,0E0,0E0],"parents":[2147483647,0,0,1,1,2,2,5,5,6,6,7,7,8,8,9,9,10,10,11,11,12,12,17,17,18,18,19,19,20,20,21,21,22,22,23,23,24,24,25,25,26,26],"right_children":[2,4,6,-1,-1,8,10,12,14,16,18,20,22,-1,-1,-1,-1,24,26,28,30,32,34,36,38,40,42,-1,-1,-1,-1,-1,-1,-1,-1,-1,-1,-1,-1,-1,-1,-1,-1],"split_conditions":[3.896313E-2,5.088141E-1,4.052021E-1,4.141636E-1,2.7717018E-2,3.7785056E-1,5.3432745E-1,2.715429E-1,6.6235974E-2,4.4842413E-1,3.8826838E-1,1.2768973E-1,6.4977366E-1,-3.7467957E-3,-6.844181E-1,1.4641896E-1,4.851927E-1,2.8392097E-1,8.0504465E-1,2.5046182E-1,5.618667E-1,2.7396113E-1,2.7976352E-1,7.535906E-2,2.5144243E-1,9.4013345E-1,5.398411E-1,-1.5564209E-1,1.14275455E-1,-8.664603E-2,-3.6685222E-1,3.3504155E-2,4.98123E-1,-3.353969E-1,-2.4945261E-2,-2.3160554E-2,2.4325849E-1,-1.8675843E-1,-5.914019E-1,2.717892E-1,-1.421339E-1,8.370581E-2,-2.1371122E-1],"split_indices":[0,1,0,0,0,0,0,0,3,0,3,0,2,0,0,0,0,2,4,3,4,2,0,2,3,0,0,0,0,0,0,0,0,0,0,0,0,0,0,0,0,0,0],"split_type":[0,0,0,0,0,0,0,0,0,0,0,0,0,0,0,0,0,0,0,0,0,0,0,0,0,0,0,0,0,0,0,0,0,0,0,0,0,0,0,0,0,0,0],"sum_hessian":[8E1,3E0,7.7E1,2E0,1E0,3.6E1,4.1E1,3.2E1,4E0,6E0,3.5E1,2.3E1,9E0,1E0,3E0,2E0,4E0,1.4E1,2.1E1,8E0,1.5E1,7E0,2E0,5E0,9E0,1.6E1,5E0,3E0,5E0,1E1,5E0,3E0,4E0,1E0,1E0,3E0,2E0,5E0,4E0,1.4E1,2E0,1E0,4E0],"tree_param":{"num_deleted":"0","num_feature":"5","num_nodes":"43","size_leaf_vector":"1"}},{"base_weights":[-1.939279E-2,3.9034426E-1,-5.2163888E-2,6.9009113E-1,-1.1084877E-1,1.3306618E-1,2.8060114E-1,-1.1538172E0,-5.1366515E-2,6.306467E-2,-3.1848908E-3,-4.6349758E-1,2.956009E-3,9.206445E-2,-5.208234E-1,-3.044117E-1,3.0388767E-1,-9.6187115E-2,-3.8498768E-1,-1.7919892E-1,2.0814252E-1,-5.6080937E-2,1.640882E-1,-2.974866E-1,9.374142E-2],"categories":[],"categories_nodes":[],"categories_segments":[],"categories_sizes":[],"default_left":[0,0,0,0,0,0,0,0,0,0,0,0,0,0,0,0,0,0,0,0,0,0,0,0,0],"id":6,"left_children":[1,-1,3,5,7,9,-1,11,13,-1,-1,-1,-1,15,17,19,21,23,-1,-1,-1,-1,-1,-1,-1],"loss_changes":[3.5731926E0,0E0,3.5612273E0,6.951871E-1,4.5935907E0,3.5486758E-2,0E0,1.8360171E0,4.896045E0,0E0,0E0,0E0,0E0,4.795546E0,5.380686E0,6.2623663E0,4.516573E0,4.7009788E0,0E0,0E0,0E0,0E0,0E0,0E0,0E0],"parents":[2147483647,0,0,2,2,3,3,4,4,5,5,7,7,8,8,13,13,14,14,15,15,16,16,17,17],"right_children":[2,-1,4,6,8,10,-1,12,14,-1,-1,-1,-1,16,18,20,22,24,-1,-1,-1,-1,-1,-1,-1],"split_conditions":[2.7616773E-2,3.9034426E-1,9.1704145E-2,4.043359E-2,1.0675607E-1,3.5864678E-1,2.8060114E-1,5.3937745E-1,7.4771875E-1,6.306467E-2,-3.1848908E-3,-4.6349758E-1,2.956009E-3,2.3598492E-1,6.476901E-1,9.309291E-1,2.1844044E-1,3.259589E-1,-3.8498768E-1,-1.7919892E-1,2.0814252E-1,-5.6080937E-2,1.640882E-1,-2.974866E-1,9.374142E-2],"split_indices":[0,0,4,4,4,0,0,0,2,0,0,0,0,2,3,1,0,3,0,0,0,0,0,0,0],"split_type":[0,0,0,0,0,0,0,0,0,0,0,0,0,0,0,0,0,0,0,0,0,0,0,0,0],"sum_hessian":[8E1,1E0,7.9E1,5E0,7.4E1,2E0,3E0,3E0,7.1E1,1E0,1E0,2E0,1E0,5.5E1,1.6E1,1.9E1,3.6E1,1.1E1,5E0,1.5E1,4E0,1.2E1,2.4E1,3E0,8E0],"tree_param":{"num_deleted":"0","num_feature":"5","num_nodes":"25","size_leaf_vector":"1"}},{"base_weights":[-1.5815523E-2,7.9804754E-1,-5.7349328E-2,2.979046E-1,3.197165E-2,2.7487797E-1,-1.5444346E-1,-3.6465725E-1,6.250337E-1,-8.3450437E-1,-5.083363E-2,3.0632353E-1,-9.4447374E-1,-1.5472269E-1,7.7562624E-1,-1.2779936E0,9.919263E-2,2.7122435E-1,-2.4825668E-1,2.1160127E-1,-6.1793644E-2,-1.1013985E-1,-4.014745E-1,1.1310641E-1,9.1028553E-1,-3.0223275E-2,-1.4932945E0,4.0943548E-1,-2.0835629E-1,-3.1627515E-1,2.99453E-1,-3.0319693E-2,2.5125504E-3,5.3604987E-2,-2.7071E-3,2.9208127E-1,6.056042E-2,-1.08828165E-1,-5.0557137E-1,2.7903297E-3,2.5589874E-1,1.2746143E-1,-1.2994592E-1],"categories":[],"categories_nodes":[],"categories_segments":[],"categories_sizes":[],"default_left":[0,0,0,0,0,0,0,0,0,0,0,0,0,0,0,0,0,0,0,0,0,0,0,0,0,0,0,0,0,0,0,0,0,0,0,0,0,0,0,0,0,0,0],"id":7,"left_children":[1,3,5,-1,-1,7,9,11,13,15,17,19,21,-1,23,25,-1,27,29,-1,31,-1,-1,33,35,-1,37,39,-1,41,-1,-1,-1,-1,-1,-1,-1,-1,-1,-1,-1,-1,-1],"loss_changes":[2.7837965E0,4.3343377E-1,2.5585241E0,0E0,0E0,4.2587876E0,4.2557E0,3.0126345E0,2.4615316E0,4.5563965E0,3.500743E0,6.3112104E-1,4.1805363E-1,0E0,8.784003E-1,1.3703375E0,0E0,3.0873733E0,3.1982353E0,0E0,9.113449E-3,0E0,0E0,2.5639106E-2,2.0716429E-1,0E0,4.736538E-1,3.364257E0,0E0,3.0426142E0,0E0,0E0,0E0,0E0,0E0,0E0,0E0,0E0,0E0,0E0,0E0,0E0,0E0],"parents":[2147483647,0,0,1,1,2,2,5,5,6,6,7,7,8,8,9,9,10,10,11,11,12,12,14,14,15,15,17,17,18,18,20,20,23,23,24,24,26,26,27,27,29,29],"right_children":[2,4,6,-1,-1,8,10,12,14,16,18,20,22,-1,24,26,-1,28,30,-1,32,-1,-1,34,36,-1,38,40,-1,42,-1,-1,-1,-1,-1,-1,-1,-1,-1,-1,-1,-1,-1],"split_conditions":[3.896313E-2,5.088141E-1,2.2939475E-1,2.979046E-1,3.197165E-2,5.459158E-1,3.0777723E-1,2.9651013E-1,7.620038E-2,3.97572E-1,4.2347094E-1,4.1650996E-1,4.2053577E-1,-1.5472269E-1,4.043359E-2,1.7533027E-1,9.919263E-2,8.313715E-1,9.818409E-1,2.1160127E-1,2.1844044E-1,-1.1013985E-1,-4.014745E-1,3.5864678E-1,8.6719894E-1,-3.0223275E-2,4.8058923E-2,6.9289035E-1,-2.0835629E-1,3.8539663E-1,2.99453E-1,-3.0319693E-2,2.5125504E-3,5.3604987E-2,-2.7071E-3,2.9208127E-1,6.056042E-2,-1.08828165E-1,-5.0557137E-1,2.7903297E-3,2.5589874E-1,1.2746143E-1,-1.2994592E-1],"split_indices":[0,1,4,0,0,1,4,3,0,0,1,1,1,0,4,1,0,3,1,0,0,0,0,0,0,0,3,4,0,4,0,0,0,0,0,0,0,0,0,0,0,0,0],"split_type":[0,0,0,0,0,0,0,0,0,0,0,0,0,0,0,0,0,0,0,0,0,0,0,0,0,0,0,0,0,0,0,0,0,0,0,0,0,0,0,0,0,0,0],"sum_hessian":[8E1,3E0,7.7E1,2E0,1E0,1.7E1,6E1,6E0,1.1E1,7E0,5.3E1,3E0,3E0,1E0,1E1,5E0,2E0,2E1,3.3E1,1E0,2E0,2E0,1E0,2E0,8E0,1E0,4E0,1.8E1,2E0,3.2E1,1E0,1E0,1E0,1E0,1E0,7E0,1E0,1E0,3E0,1E1,8E0,4E0,2.8E1],"tree_param":{"num_deleted":"0","num_feature":"5","num_nodes":"43","size_leaf_vector":"1"}},{"base_weights":[-1.0419633E-2,4.0157776E-2,-5.508319E-1,-3.063612E-1,6.830056E-2,-2.7603123E-1,-3.3593592E-1,1.5740937E-1,-2.3973544E-1,1.3246537E-4,-1.2098992E-1,6.6144384E-2,7.195475E-1,5.053911E-1,-4.3550476E-1,-8.006494E-3,9.394188E-1,7.2598457E-3,1.1454681E0,-5.2103236E-2,2.3689194E-1,1.5277234E-1,-7.3945737E-1,2.871071E-1,-1.4670377E-2,3.2836264E-1,7.11073E-2,2.0085145E-2,-2.577181E-2,4.0577433E-1,4.7552492E-2,1.3383065E-1,-2.7078706E-1],"categories":[],"categories_nodes":[],"categories_segments":[],"categories_sizes":[],"default_left":[0,0,0,0,0,0,0,0,0,0,0,0,0,0,0,0,0,0,0,0,0,0,0,0,0,0,0,0,0,0,0,0,0],"id":8,"left_children":[1,3,5,-1,7,-1,9,11,13,-1,-1,15,17,19,21,23,25,27,29,-1,-1,-1,31,-1,-1,-1,-1,-1,-1,-1,-1,-1,-1],"loss_changes":[2.2360651E0,2.3099742E0,2.4638963E-1,0E0,2.068942E0,0E0,1.3613611E-1,2.928011E0,2.69994E0,0E0,0E0,3.3099787E0,2.4187088E0,9.092401E-1,4.3967743E0,1.941104E0,1.7639804E-1,2.799597E-2,8.076644E-1,0E0,0E0,0E0,2.5305371E0,0E0,0E0,0E0,0E0,0E0,0E0,0E0,0E0,0E0,0E0],"parents":[2147483647,0,0,1,1,2,2,4,4,6,6,7,7,8,8,11,11,12,12,13,13,14,14,15,15,16,16,17,17,18,18,22,22],"right_children":[2,4,6,-1,8,-1,10,12,14,-1,-1,16,18,20,22,24,26,28,30,-1,-1,-1,32,-1,-1,-1,-1,-1,-1,-1,-1,-1,-1],"split_conditions":[9.4013345E-1,1.8075364E-2,9.7661495E-1,-3.063612E-1,7.4771875E-1,-2.7603123E-1,9.7889286E-1,6.689882E-1,4.2347094E-1,1.3246537E-4,-1.2098992E-1,9.652518E-1,5.459158E-1,2.3859686E-1,2.2939475E-1,2.7616773E-2,4.593468E-1,3.6965445E-1,7.409739E-1,-5.2103236E-2,2.3689194E-1,1.5277234E-1,5.8193594E-2,2.871071E-1,-1.4670377E-2,3.2836264E-1,7.11073E-2,2.0085145E-2,-2.577181E-2,4.0577433E-1,4.7552492E-2,1.3383065E-1,-2.7078706E-1],"split_indices":[0,3,0,0,2,0,0,2,1,0,0,1,1,0,4,0,0,1,2,0,0,0,0,0,0,0,0,0,0,0,0,0,0],"split_type":[0,0,0,0,0,0,0,0,0,0,0,0,0,0,0,0,0,0,0,0,0,0,0,0,0,0,0,0,0,0,0,0,0],"sum_hessian":[8E1,7.4E1,6E0,1E0,7.3E1,1E0,5E0,5.7E1,1.6E1,1E0,4E0,5E1,7E0,3E0,1.3E1,4.7E1,3E0,3E0,4E0,1E0,2E0,3E0,1E1,1E0,4.6E1,2E0,1E0,2E0,1E0,3E0,1E0,1E0,9E0],"tree_param":{"num_deleted":"0","num_feature":"5","num_nodes":"33","size_leaf_vector":"1"}},{"base_weights":[3.2295415E-4,-2.6040688E-1,2.2027563E-2,6.565089E-2,-4.4228008E-1,8.762655E-2,-2.3078586E-1,-2.3462649E-1,-2.5529733E-1,-4.048331E-3,4.4237265E-1,1.1272431E-4,-9.195214E-2,6.885147E-2,-4.1669738E-1,-3.2149792E-1,6.6013175E-1,-6.4631975E-3,1.4792722E-1,4.80001E-2,-2.1951391E-1,-9.749603E-3,-1.7827435E-1,2.5249928E-1,2.5995256E-2],"categories":[],"categories_nodes":[],"categories_segments":[],"categories_sizes":[],"default_left":[0,0,0,0,0,0,0,0,0,0,0,0,0,0,0,0,0,0,0,0,0,0,0,0,0],"id":9,"left_children":[1,-1,3,5,7,9,-1,-1,11,13,15,-1,-1,17,19,21,23,-1,-1,-1,-1,-1,-1,-1,-1],"loss_changes":[1.5457362E0,0E0,1.6494076E0,1.4251835E0,2.4510276E-1,2.375846E0,0E0,0E0,7.8672945E-2,1.8035303E0,2.707328E0,0E0,0E0,1.9664377E0,1.7520932E0,2.9598573E-1,1.1763339E0,0E0,0E0,0E0,0E0,0E0,0E0,0E0,0E0],"parents":[2147483647,0,0,2,2,3,3,4,4,5,5,8,8,9,9,10,10,13,13,14,14,15,15,16,16],"right_children":[2,-1,4,6,8,10,-1,-1,12,14,16,-1,-1,18,20,22,24,-1,-1,-1,-1,-1,-1,-1,-1],"split_conditions":[1.8075364E-2,-2.6040688E-1,9.4013345E-1,9.8528606E-1,9.7661495E-1,6.816137E-1,-2.3078586E-1,-2.3462649E-1,9.7889286E-1,5.5600506E-1,2.1458912E-1,1.1272431E-4,-9.195214E-2,8.227903E-1,3.7772888E-1,8.4666115E-1,8.112042E-1,-6.4631975E-3,1.4792722E-1,4.80001E-2,-2.1951391E-1,-9.749603E-3,-1.7827435E-1,2.5249928E-1,2.5995256E-2],"split_indices":[3,0,0,2,0,0,0,0,0,0,3,0,0,4,4,0,1,0,0,0,0,0,0,0,0],"split_type":[0,0,0,0,0,0,0,0,0,0,0,0,0,0,0,0,0,0,0,0,0,0,0,0,0],"sum_hessian":[8E1,1E0,7.9E1,7.3E1,6E0,7.2E1,1E0,1E0,5E0,5.8E1,1.4E1,1E0,4E0,5E1,8E0,3E0,1.1E1,4.2E1,8E0,3E0,5E0,2E0,1E0,8E0,3E0],"tree_param":{"num_deleted":"0","num_feature":"5","num_nodes":"25","size_leaf_vector":"1"}},{"base_weights":[-9.122189E-3,2.4501057E-1,-2.9653763E-2,-4.7434192E-2,2.0625001E-1,-1.816487E-2,-2.3486061E-1,-5.4558452E-2,5.168144E-1,3.0016422E-2,-4.131252E-1,1.8752748E-1,7.087975E-2,-2.8485559E-2,1.6134067E-1,-2.0837379E-1,-3.456366E-2],"categories":[],"categories_nodes":[],"categories_segments":[],"categories_sizes":[],"default_left":[0,0,0,0,0,0,0,0,0,0,0,0,0,0,0,0,0],"id":10,"left_children":[1,-1,3,5,-1,7,-1,9,11,13,15,-1,-1,-1,-1,-1,-1],"loss_changes":[1.3976113E0,0E0,1.0527151E0,1.6863071E0,0E0,1.5273722E0,0E0,2.2261794E0,4.19724E-3,3.8584926E0,1.0938597E0,0E0,0E0,0E0,0E0,0E0,0E0],"parents":[2147483647,0,0,2,2,3,3,5,5,7,7,8,8,9,9,10,10],"right_children":[2,-1,4,6,-1,8,-1,10,12,14,16,-1,-1,-1,-1,-1,-1],"split_conditions":[2.7616773E-2,2.4501057E-1,9.944575E-1,9.7366387E-1,2.0625001E-1,9.585415E-1,-2.3486061E-1,8.563243E-1,2.7956033E-1,6.798448E-1,9.0682846E-1,1.8752748E-1,7.087975E-2,-2.8485559E-2,1.6134067E-1,-2.0837379E-1,-3.456366E-2],"split_indices":[0,0,1,1,0,1,0,1,0,1,1,0,0,0,0,0,0],"split_type":[0,0,0,0,0,0,0,0,0,0,0,0,0,0,0,0,0],"sum_hessian":[8E1,1E0,7.9E1,7.8E1,1E0,7.6E1,2E0,7.2E1,4E0,5.9E1,1.3E1,2E0,2E0,4.8E1,1.1E1,6E0,7E0],"tree_param":{"num_deleted":"0","num_feature":"5","num_nodes":"17","size_leaf_vector":"1"}},{"base_weights":[-1.8824354E-3,-2.1707298E-1,1.6183447E-2,4.9590158E-1,-8.94715E-3,2.0825902E-1,5.9521295E-2,7.768029E-3,-1.9189511E-1,-1.673424E-2,4.5299244E-1,-3.293478E-1,3.81147E-2,1.8737069E-1,5.628319E-2,-1.9270086E-1,1.1559582E-2,3.3068106E-1,9.517055E-4],"categories":[],"categories_nodes":[],"categories_segments":[],"categories_sizes":[],"default_left":[0,0,0,0,0,0,0,0,0,0,0,0,0,0,0,0,0,0,0],"id":11,"left_children":[1,-1,3,5,7,-1,-1,9,-1,11,13,15,17,-1,-1,-1,-1,-1,-1],"loss_changes":[1.0677913E0,0E0,9.688851E-1,9.8237455E-2,8.167272E-1,0E0,0E0,8.366651E-1,0E0,1.2642491E0,6.495738E-2,1.2913134E0,2.3391008E0,0E0,0E0,0E0,0E0,0E0,0E0],"parents":[2147483647,0,0,2,2,3,3,4,4,7,7,9,9,10,10,11,11,12,12],"right_children":[2,-1,4,6,8,-1,-1,10,-1,12,14,16,18,-1,-1,-1,-1,-1,-1],"split_conditions":[1.8075364E-2,-2.1707298E-1,3.896313E-2,2.7616773E-2,9.8528606E-1,2.0825902E-1,5.9521295E-2,9.4285357E-1,-1.9189511E-1,2.5416365E-1,2.0668437E-1,3.9298946E-1,2.6847485E-1,1.8737069E-1,5.628319E-2,-1.9270086E-1,1.1559582E-2,3.3068106E-1,9.517055E-4],"split_indices":[3,0,0,0,2,0,0,2,0,1,1,0,1,0,0,0,0,0,0],"split_type":[0,0,0,0,0,0,0,0,0,0,0,0,0,0,0,0,0,0,0],"sum_hessian":[8E1,1E0,7.9E1,3E0,7.6E1,1E0,2E0,7.5E1,1E0,7.2E1,3E0,1E1,6.2E1,1E0,2E0,5E0,5E0,1E0,6.1E1],"tree_param":{"num_deleted":"0","num_feature":"5","num_nodes":"19","size_leaf_vector":"1"}},{"base_weights":[1.8054821E-3,4.2345345E-2,-2.3482752E-1,1.5801664E-2,2.8107893E-1,6.0811043E-2,-4.546852E-1,-1.1700096E-1,1.4815281E-1,5.7885934E-2,-5.3498268E-2,-1.9061881E-1,-4.809094E-2,1.5278908E-2,-9.13736E-1,-8.2579896E-2,3.4680036E-1,-3.5863686E-2,2.1696568E-2,1.2930527E-1,-3.9414078E-1,-2.3474695E-2,-3.3091366E-1,3.2794666E-1,-4.0274316E-1,4.31278E-1,-7.425194E-2,8.123703E-2,-1.09158516E-1,4.57346E-2,-1.5319414E-1,3.9947093E-2,1.4683414E-1,-3.22851E-1,1.1882073E-2,5.3308744E-2,1.9108213E-1],"categories":[],"categories_nodes":[],"categories_segments":[],"categories_sizes":[],"default_left":[0,0,0,0,0,0,0,0,0,0,0,0,0,0,0,0,0,0,0,0,0,0,0,0,0,0,0,0,0,0,0,0,0,0,0,0,0],"id":12,"left_children":[1,3,5,7,-1,9,11,13,15,-1,17,-1,-1,19,21,23,25,-1,-1,27,29,-1,-1,31,33,35,-1,-1,-1,-1,-1,-1,-1,-1,-1,-1,-1],"loss_changes":[7.869825E-1,1.6473843E0,8.076309E-1,1.230118E0,0E0,1.00953065E-1,2.705301E-1,3.7026813E0,1.6328456E0,0E0,4.188612E-2,0E0,0E0,1.4981881E0,7.0451546E-1,2.366482E0,1.0606513E0,0E0,0E0,1.8429214E0,5.2361536E-1,0E0,0E0,1.8649566E-1,3.021528E0,7.7340794E-1,0E0,0E0,0E0,0E0,0E0,0E0,0E0,0E0,0E0,0E0,0E0],"parents":[2147483647,0,0,1,1,2,2,3,3,5,5,6,6,7,7,8,8,10,10,13,13,14,14,15,15,16,16,19,19,20,20,23,23,24,24,25,25],"right_children":[2,4,6,8,-1,10,12,14,16,-1,18,-1,-1,20,22,24,26,-1,-1,28,30,-1,-1,32,34,36,-1,-1,-1,-1,-1,-1,-1,-1,-1,-1,-1],"split_conditions":[8.509284E-1,8.4866977E-1,5.398411E-1,4.052021E-1,2.8107893E-1,8.085333E-2,6.0244095E-1,3.5864678E-1,4.3445185E-1,5.7885934E-2,3.5256886E-1,-1.9061881E-1,-4.809094E-2,5.618667E-1,6.6235974E-2,2.8392097E-1,9.4013345E-1,-3.5863686E-2,2.1696568E-2,7.4771875E-1,3.896313E-2,-2.3474695E-2,-3.3091366E-1,7.535906E-2,4.045081E-1,6.5711135E-1,-7.425194E-2,8.123703E-2,-1.09158516E-1,4.57346E-2,-1.5319414E-1,3.9947093E-2,1.4683414E-1,-3.22851E-1,1.1882073E-2,5.3308744E-2,1.9108213E-1],"split_indices":[4,4,0,0,0,0,0,0,3,0,0,0,0,4,3,2,0,0,0,2,0,0,0,2,2,4,0,0,0,0,0,0,0,0,0,0,0],"split_type":[0,0,0,0,0,0,0,0,0,0,0,0,0,0,0,0,0,0,0,0,0,0,0,0,0,0,0,0,0,0,0,0,0,0,0,0,0],"sum_hessian":[8E1,6.9E1,1.1E1,6.8E1,1E0,5E0,6E0,3.4E1,3.4E1,2E0,3E0,3E0,3E0,3E1,4E0,1.6E1,1.8E1,2E0,1E0,2.4E1,6E0,1E0,3E0,7E0,9E0,1.6E1,2E0,1.9E1,5E0,1E0,5E0,4E0,3E0,3E0,6E0,8E0,8E0],"tree_param":{"num_deleted":"0","num_feature":"5","num_nodes":"37","size_leaf_vector":"1"}},{"base_weights":[-3.1528003E-3,1.6483441E-1,-1.692841E-2,9.818498E-2,-8.080072E-2,-8.028954E-2,3.9753324E-1,-2.99653E-1,6.534612E-2,-4.5181337E-1,8.466993E-2,5.271108E-1,-3.711319E-2,-6.488901E-1,-1.1669884E-1,4.777156E-1,-9.2015184E-2,-7.9409885E-1,4.6551514E-2,2.1899761E-1,-3.0589867E-1,5.9548695E-2,6.5219307E-1,-2.559754E-1,-2.759743E-2,-1.9657394E-1,1.502329E-1,2.791834E-1,1.9682552E-1,-2.9448128E-1,1.0195468E-1,-1.5272141E-3,-3.1662142E-1,2.3891717E-1,2.448578E-2,-1.0970059E-1,-1.8988324E-2,2.8563024E-2,-1.7661095E-3,2.421784E-1,5.2904513E-2,-2.2234898E-2,-1.2065232E-1,1.8442154E-2,9.312916E-2,4.983702E-2,-1.399423E-1,5.2454997E-2,-1.1591835E-1],"categories":[],"categories_nodes":[],"categories_segments":[],"categories_sizes":[],"default_left":[0,0,0,0,0,0,0,0,0,0,0,0,0,0,0,0,0,0,0,0,0,0,0,0,0,0,0,0,0,0,0,0,0,0,0,0,0,0,0,0,0,0,0,0,0,0,0,0,0],"id":13,"left_children":[1,-1,3,5,7,9,11,13,15,17,19,21,-1,23,25,27,29,31,-1,33,35,37,39,-1,-1,41,-1,43,-1,45,47,-1,-1,-1,-1,-1,-1,-1,-1,-1,-1,-1,-1,-1,-1,-1,-1,-1,-1],"loss_changes":[6.2590677E-1,0E0,5.9613806E-1,1.5812728E0,1.682779E0,1.2026961E0,8.08166E-1,1.2660571E0,2.120469E0,1.369795E0,8.0148953E-1,4.875164E-1,0E0,7.1816754E-1,8.382529E-1,1.3554049E-1,9.7255945E-1,8.193166E-1,0E0,8.0753326E-1,3.4856975E-2,7.5610904E-3,3.7415934E-1,0E0,0E0,3.226751E-1,0E0,2.1733433E-2,0E0,1.0281419E0,5.303398E-1,0E0,0E0,0E0,0E0,0E0,0E0,0E0,0E0,0E0,0E0,0E0,0E0,0E0,0E0,0E0,0E0,0E0,0E0],"parents":[2147483647,0,0,2,2,3,3,4,4,5,5,6,6,7,7,8,8,9,9,10,10,11,11,13,13,14,14,15,15,16,16,17,17,19,19,20,20,21,21,22,22,25,25,27,27,29,29,30,30],"right_children":[2,-1,4,6,8,10,12,14,16,18,20,22,-1,24,26,28,30,32,-1,34,36,38,40,-1,-1,42,-1,44,-1,46,48,-1,-1,-1,-1,-1,-1,-1,-1,-1,-1,-1,-1,-1,-1,-1,-1,-1,-1],"split_conditions":[2.7616773E-2,1.6483441E-1,4.2347094E-1,3.4062457E-1,6.798448E-1,4.1125512E-1,8.009493E-1,4.045081E-1,8.112042E-1,3.9298946E-1,8.509284E-1,7.041613E-2,-3.711319E-2,6.7202616E-1,7.9181784E-1,6.3633263E-1,9.300168E-1,1.7533027E-1,4.6551514E-2,3.2434502E-1,6.0244095E-1,5.8130544E-1,6.1585116E-1,-2.559754E-1,-2.759743E-2,7.3521614E-1,1.502329E-1,6.9541115E-1,1.9682552E-1,5.5871155E-2,9.35635E-1,-1.5272141E-3,-3.1662142E-1,2.3891717E-1,2.448578E-2,-1.0970059E-1,-1.8988324E-2,2.8563024E-2,-1.7661095E-3,2.421784E-1,5.2904513E-2,-2.2234898E-2,-1.2065232E-1,1.8442154E-2,9.312916E-2,4.983702E-2,-1.399423E-1,5.2454997E-2,-1.1591835E-1],"split_indices":[0,0,1,1,1,4,2,2,1,0,4,2,0,3,3,2,1,1,0,3,0,0,2,0,0,4,0,1,0,4,0,0,0,0,0,0,0,0,0,0,0,0,0,0,0,0,0,0,0],"split_type":[0,0,0,0,0,0,0,0,0,0,0,0,0,0,0,0,0,0,0,0,0,0,0,0,0,0,0,0,0,0,0,0,0,0,0,0,0,0,0,0,0,0,0,0,0,0,0,0,0],"sum_hessian":[8E1,1E0,7.9E1,2.8E1,5.1E1,1.8E1,1E1,2E1,3.1E1,5E0,1.3E1,8E0,2E0,6E0,1.4E1,8E0,2.3E1,3E0,2E0,1E1,3E0,2E0,6E0,4E0,2E0,1.3E1,1E0,5E0,3E0,1.1E1,1.2E1,1E0,2E0,1E0,9E0,2E0,1E0,1E0,1E0,4E0,2E0,9E0,4E0,1E0,4E0,3E0,8E0,1.1E1,1E0],"tree_param":{"num_deleted":"0","num_feature":"5","num_nodes":"49","size_leaf_vector":"1"}},{"base_weights":[1.5473072E-4,1.2389612E-2,-1.4679538E-1,2.868266E-4,1.4527646E-1,1.8285355E-2,-1.3853131E-1,-1.4401998E-1,7.0243254E-2,-1.8649038E-2,-4.913288E-1,4.7177434E-1,7.1184086E-3,4.78828E-2,-5.837288E-2,-2.3386595E-1,-1.1798478E-2,2.0904031E-1,2.1764232E-2,-9.564743E-2,2.76945E-2],"categories":[],"categories_nodes":[],"categories_segments":[],"categories_sizes":[],"default_left":[0,0,0,0,0,0,0,0,0,0,0,0,0,0,0,0,0,0,0,0,0],"id":14,"left_children":[1,3,-1,5,-1,7,-1,9,11,13,15,17,19,-1,-1,-1,-1,-1,-1,-1,-1],"loss_changes":[4.9114227E-1,4.567318E-1,0E0,6.6543615E-1,0E0,6.5946084E-1,0E0,8.1814355E-1,1.4920903E0,5.014637E-1,6.207292E-1,6.6814244E-1,1.4734331E0,0E0,0E0,0E0,0E0,0E0,0E0,0E0,0E0],"parents":[2147483647,0,0,1,1,3,3,5,5,7,7,8,8,9,9,10,10,11,11,12,12],"right_children":[2,4,-1,6,-1,8,-1,10,12,14,16,18,20,-1,-1,-1,-1,-1,-1,-1,-1],"split_conditions":[9.8528606E-1,9.944575E-1,-1.4679538E-1,9.7366387E-1,1.4527646E-1,2.3598492E-1,-1.3853131E-1,1.4660482E-1,2.9563367E-1,5.926967E-1,5.166963E-1,3.9882445E-1,4.5726517E-1,4.78828E-2,-5.837288E-2,-2.3386595E-1,-1.1798478E-2,2.0904031E-1,2.1764232E-2,-9.564743E-2,2.76945E-2],"split_indices":[2,1,0,1,0,2,0,2,2,4,3,1,2,0,0,0,0,0,0,0,0],"split_type":[0,0,0,0,0,0,0,0,0,0,0,0,0,0,0,0,0,0,0,0,0],"sum_hessian":[8E1,7.9E1,1E0,7.8E1,1E0,7.6E1,2E0,1.8E1,5.8E1,1.4E1,4E0,7E0,5.1E1,7E0,7E0,2E0,2E0,4E0,3E0,1E1,4.1E1],"tree_param":{"num_deleted":"0","num_feature":"5","num_nodes":"21","size_leaf_vector":"1"}},{"base_weights":[-2.772649E-3,3.3031702E-1,-1.9818624E-2,1.3595524E-1,4.1489985E-2,-1.3939896E-1,2.105299E-2,-3.4533136E-2,-2.9238105E-1,1.7304412E-1,1.5258461E-3,-1.0577011E-1,4.565778E-2,-1.2522103E-1,-6.300783E-2,-1.370841E-1,7.2568744E-2,-9.420738E-2,-1.4453411E-2,1.3407898E-2,-3.4141734E-2,-3.7303608E-2,-2.0702171E-1,1.4743996E-1,3.6642745E-2,4.2174112E-2,-6.138969E-2,6.0820702E-2,-6.254592E-2,4.5054447E-2,-4.196785E-2],"categories":[],"categories_nodes":[],"categories_segments":[],"categories_sizes":[],"default_left":[0,0,0,0,0,0,0,0,0,0,0,0,0,0,0,0,0,0,0,0,0,0,0,0,0,0,0,0,0,0,0],"id":15,"left_children":[1,3,5,-1,-1,7,9,11,13,-1,15,17,-1,-1,19,21,23,-1,25,-1,-1,27,-1,-1,29,-1,-1,-1,-1,-1,-1],"loss_changes":[4.6645132E-1,3.169498E-2,3.8415518E-1,0E0,0E0,3.1075504E-1,6.394127E-1,1.8902051E-1,2.0311457E-1,0E0,5.8108866E-1,1.856324E-1,0E0,0E0,2.6970237E-2,1.0778067E0,5.689149E-1,0E0,2.646405E-1,0E0,0E0,7.818982E-1,0E0,0E0,7.626235E-1,0E0,0E0,0E0,0E0,0E0,0E0],"parents":[2147483647,0,0,1,1,2,2,5,5,6,6,7,7,8,8,10,10,11,11,14,14,15,15,16,16,18,18,21,21,24,24],"right_children":[2,4,6,-1,-1,8,10,12,14,-1,16,18,-1,-1,20,22,24,-1,26,-1,-1,28,-1,-1,30,-1,-1,-1,-1,-1,-1],"split_conditions":[3.896313E-2,2.7616773E-2,2.3859686E-1,1.3595524E-1,4.1489985E-2,1.5504162E-1,2.5086054E-1,9.300168E-1,2.0722765E-1,1.7304412E-1,3.2255077E-1,7.620038E-2,4.565778E-2,-1.2522103E-1,2.0907162E-1,2.9651013E-1,3.2665125E-1,-9.420738E-2,4.8482996E-1,1.3407898E-2,-3.4141734E-2,2.5025135E-1,-2.0702171E-1,1.4743996E-1,7.3164773E-1,4.2174112E-2,-6.138969E-2,6.0820702E-2,-6.254592E-2,4.5054447E-2,-4.196785E-2],"split_indices":[0,0,0,0,0,0,0,1,0,0,3,0,0,0,0,3,3,0,4,0,0,4,0,0,4,0,0,0,0,0,0],"split_type":[0,0,0,0,0,0,0,0,0,0,0,0,0,0,0,0,0,0,0,0,0,0,0,0,0,0,0,0,0,0,0],"sum_hessian":[8E1,3E0,7.7E1,1E0,2E0,1.9E1,5.8E1,1.2E1,7E0,1E0,5.7E1,9E0,3E0,4E0,3E0,1.9E1,3.8E1,2E0,7E0,1E0,2E0,1.7E1,2E0,2E0,3.6E1,4E0,3E0,7E0,1E1,2.2E1,1.4E1],"tree_param":{"num_deleted":"0","num_feature":"5","num_nodes":"31","size_leaf_vector":"1"}},{"base_weights":[-9.714527E-4,-1.205585E-2,1.3286705E-1,2.7558327E-1,-2.6841572E-2,1.1556187E-1,3.3192065E-2,-7.850112E-2,7.173171E-2,-1.6465911E-1,3.354595E-2,5.1052505E-1,-5.1199738E-2,-2.841497E-1,2.8298378E-2,3.013475E-1,-1.0245144E-1,7.407061E-2,2.1307041E-1,1.8070411E-2,-1.4878026E-1,-1.2593043E-1,-1.8646717E-2,1.2280179E-1,-2.6653118E-2,4.651749E-2,1.2266164E-1,2.9221702E-2,-8.061562E-2,6.971169E-3,2.6360609E-2,7.178421E-2,-1.5656162E-2],"categories":[],"categories_nodes":[],"categories_segments":[],"categories_sizes":[],"default_left":[0,0,0,0,0,0,0,0,0,0,0,0,0,0,0,0,0,0,0,0,0,0,0,0,0,0,0,0,0,0,0,0,0],"id":16,"left_children":[1,3,-1,5,7,-1,-1,9,11,13,15,17,19,21,23,25,27,29,-1,31,-1,-1,-1,-1,-1,-1,-1,-1,-1,-1,-1,-1,-1],"loss_changes":[4.0385446E-1,3.4763324E-1,0E0,2.9706895E-2,3.977344E-1,0E0,0E0,4.978648E-1,1.4825593E0,6.766826E-1,8.6854064E-1,4.7037745E-1,6.8671185E-1,5.158253E-1,5.719985E-1,6.2438488E-2,5.5785E-1,6.2385574E-5,0E0,3.2332155E-1,0E0,0E0,0E0,0E0,0E0,0E0,0E0,0E0,0E0,0E0,0E0,0E0,0E0],"parents":[2147483647,0,0,1,1,3,3,4,4,7,7,8,8,9,9,10,10,11,11,12,12,13,13,14,14,15,15,16,16,17,17,19,19],"right_children":[2,4,-1,6,8,-1,-1,10,12,14,16,18,20,22,24,26,28,30,-1,32,-1,-1,-1,-1,-1,-1,-1,-1,-1,-1,-1,-1,-1],"split_conditions":[9.944575E-1,3.896313E-2,1.3286705E-1,2.7616773E-2,6.7114353E-1,1.1556187E-1,3.3192065E-2,6.798448E-1,7.3164773E-1,6.027819E-1,8.112042E-1,8.1594184E-2,8.583588E-1,5.3937745E-1,6.382706E-1,2.2939475E-1,2.1680911E-1,2.5299016E-1,2.1307041E-1,3.7268686E-1,-1.4878026E-1,-1.2593043E-1,-1.8646717E-2,1.2280179E-1,-2.6653118E-2,4.651749E-2,1.2266164E-1,2.9221702E-2,-8.061562E-2,6.971169E-3,2.6360609E-2,7.178421E-2,-1.5656162E-2],"split_indices":[1,0,0,0,4,0,0,1,4,2,1,2,2,0,2,4,4,0,0,3,0,0,0,0,0,0,0,0,0,0,0,0,0],"split_type":[0,0,0,0,0,0,0,0,0,0,0,0,0,0,0,0,0,0,0,0,0,0,0,0,0,0,0,0,0,0,0,0,0],"sum_hessian":[8E1,7.9E1,1E0,3E0,7.6E1,1E0,2E0,5E1,2.6E1,2.8E1,2.2E1,5E0,2.1E1,1.7E1,1.1E1,7E0,1.5E1,2E0,3E0,1.9E1,2E0,1E1,7E0,2E0,9E0,4E0,3E0,7E0,8E0,1E0,1E0,4E0,1.5E1],"tree_param":{"num_deleted":"0","num_feature":"5","num_nodes":"33","size_leaf_vector":"1"}},{"base_weights":[5.5511147E-3,-1.6552353E-1,2.6566466E-2,4.7413144E-2,-1.8216039E-1,7.1995385E-2,-1.2731676E-1,-4.508972E-2,1.05415024E-1,-1.1852523E-1,1.3097931E-1,1.2312253E-2,-3.8535532E-1,-7.6612476E-3,4.101391E-2,-3.288479E-1,-3.126925E-2,-8.610907E-2,1.473756E-1,1.5539742E-1,-2.1908645E-1,-1.2504673E-1,-3.420296E-2,-1.9532262E-1,-4.4136047E-3,1.3883972E-1,-1.2695599E-1,7.671272E-2,2.3259644E-1,9.259796E-3,2.992201E-1,-1.1902409E-1,3.160286E-2,1.1927605E-3,-3.1788826E-3,4.153143E-3,-1.0248499E-1,4.754556E-2,-2.5881005E-2,1.2393136E-1,2.7862405E-2,-2.7678682E-2,3.230858E-2,1.0612603E-1,2.0343019E-2,3.2919217E-2,-1.869793E-2],"categories":[],"categories_nodes":[],"categories_segments":[],"categories_sizes":[],"default_left":[0,0,0,0,0,0,0,0,0,0,0,0,0,0,0,0,0,0,0,0,0,0,0,0,0,0,0,0,0,0,0,0,0,0,0,0,0,0,0,0,0,0,0,0,0,0,0],"id":17,"left_children":[1,3,5,7,-1,9,11,-1,13,15,17,19,21,-1,-1,23,25,-1,27,29,31,-1,-1,-1,33,-1,35,37,39,41,43,-1,45,-1,-1,-1,-1,-1,-1,-1,-1,-1,-1,-1,-1,-1,-1],"loss_changes":[2.9560807E-1,8.7523395E-1,5.194909E-1,9.611754E-2,0E0,6.560707E-1,6.1724895E-1,0E0,2.8082624E-2,2.4664392E-1,3.4386837E-1,4.3136212E-1,3.7088394E-3,0E0,0E0,4.1529292E-1,5.7878876E-1,0E0,2.4110085E-1,1.6537249E-1,2.352263E-1,0E0,0E0,0E0,1.9773743E-4,0E0,3.06971E-1,3.4686002E-1,4.4083023E-1,5.9903067E-2,2.6490182E-2,0E0,2.8854609E-2,0E0,0E0,0E0,0E0,0E0,0E0,0E0,0E0,0E0,0E0,0E0,0E0,0E0,0E0],"parents":[2147483647,0,0,1,1,2,2,3,3,5,5,6,6,8,8,9,9,10,10,11,11,12,12,15,15,16,16,18,18,19,19,20,20,24,24,26,26,27,27,28,28,29,29,30,30,32,32],"right_children":[2,4,6,8,-1,10,12,-1,14,16,18,20,22,-1,-1,24,26,-1,28,30,32,-1,-1,-1,34,-1,36,38,40,42,44,-1,46,-1,-1,-1,-1,-1,-1,-1,-1,-1,-1,-1,-1,-1,-1],"split_conditions":[1.0675607E-1,9.387329E-2,7.4771875E-1,6.6235974E-2,-1.8216039E-1,2.9795945E-1,6.476901E-1,-4.508972E-2,4.8674214E-1,2.539154E-1,1.8075364E-2,5.4254025E-1,8.8046783E-1,-7.6612476E-3,4.101391E-2,3.9298946E-1,3.2434502E-1,-8.610907E-2,4.5726517E-1,2.3859686E-1,8.1638575E-1,-1.2504673E-1,-3.420296E-2,-1.9532262E-1,6.767699E-1,1.3883972E-1,2.5001645E-1,2.6082918E-1,3.8539663E-1,8.291642E-1,4.2347094E-1,-1.1902409E-1,9.1047126E-1,1.1927605E-3,-3.1788826E-3,4.153143E-3,-1.0248499E-1,4.754556E-2,-2.5881005E-2,1.2393136E-1,2.7862405E-2,-2.7678682E-2,3.230858E-2,1.0612603E-1,2.0343019E-2,3.2919217E-2,-1.869793E-2],"split_indices":[4,4,2,3,0,1,3,0,1,3,3,0,0,0,0,0,3,0,2,0,0,0,0,0,0,0,1,2,4,1,1,0,0,0,0,0,0,0,0,0,0,0,0,0,0,0,0],"split_type":[0,0,0,0,0,0,0,0,0,0,0,0,0,0,0,0,0,0,0,0,0,0,0,0,0,0,0,0,0,0,0,0,0,0,0,0,0,0,0,0,0,0,0,0,0,0,0],"sum_hessian":[8E1,8E0,7.2E1,6E0,2E0,5.6E1,1.6E1,1E0,5E0,1.3E1,4.3E1,1.1E1,5E0,1E0,4E0,3E0,1E1,1E0,4.2E1,7E0,4E0,4E0,1E0,1E0,2E0,1E0,9E0,2.4E1,1.8E1,4E0,3E0,2E0,2E0,1E0,1E0,6E0,3E0,1.6E1,8E0,7E0,1.1E1,2E0,2E0,2E0,1E0,1E0,1E0],"tree_param":{"num_deleted":"0","num_feature":"5","num_nodes":"47","size_leaf_vector":"1"}},{"base_weights":[-1.0070094E-3,-9.836698E-3,1.0580521E-1,-6.623669E-2,4.54276E-2,4.378996E-2,-1.6786984E-1,1.330002E-1,1.3654611E-2,4.6863556E-3,1.1801377E-1,-2.9569262E-1,-2.4786169E-2,-2.1278317E-1,5.3212613E-2,-1.512382E-1,1.0824553E-1,-2.143593E-1,-1.2322511E-1,8.259392E-2,-9.794535E-2,-2.187093E-3,-9.526034E-2,1.173638E-1,-7.417822E-2,3.2883168E-3,-7.5224996E-2,-1.3889809E-2,5.739162E-2,-2.8001785E-3,-7.897668E-2,-3.8326263E-2,5.0135855E-2,1.1285019E-2,-6.270633E-2,-1.524353E-3,5.4016116E-4,-5.393658E-2,4.626762E-2,5.2099686E-2,-6.59425E-2],"categories":[],"categories_nodes":[],"categories_segments":[],"categories_sizes":[],"default_left":[0,0,0,0,0,0,0,0,0,0,0,0,0,0,0,0,0,0,0,0,0,0,0,0,0,0,0,0,0,0,0,0,0,0,0,0,0,0,0,0,0],"id":18,"left_children":[1,3,-1,5,7,9,11,-1,13,15,-1,17,19,21,23,25,27,-1,29,31,33,35,-1,37,39,-1,-1,-1,-1,-1,-1,-1,-1,-1,-1,-1,-1,-1,-1,-1,-1],"loss_changes":[2.5643075E-1,2.5236142E-1,0E0,4.5464522E-1,5.122961E-1,2.7156046E-1,3.7674737E-1,0E0,3.606624E-1,3.2317182E-1,0E0,7.065479E-1,9.450393E-2,1.3166678E-1,2.8656313E-1,1.3187437E-1,1.6289507E-1,0E0,1.4107694E-1,1.1024922E-1,1.132663E-1,4.3770455E-5,0E0,2.7965868E-1,4.7129554E-1,0E0,0E0,0E0,0E0,0E0,0E0,0E0,0E0,0E0,0E0,0E0,0E0,0E0,0E0,0E0,0E0],"parents":[2147483647,0,0,1,1,3,3,4,4,5,5,6,6,8,8,9,9,11,11,12,12,13,13,14,14,15,15,16,16,18,18,19,19,20,20,21,21,23,23,24,24],"right_children":[2,4,-1,6,8,10,12,-1,14,16,-1,18,20,22,24,26,28,-1,30,32,34,36,-1,38,40,-1,-1,-1,-1,-1,-1,-1,-1,-1,-1,-1,-1,-1,-1,-1,-1],"split_conditions":[9.944575E-1,4.3445185E-1,1.0580521E-1,3.7785056E-1,5.1332617E-1,3.5256886E-1,4.981652E-1,1.330002E-1,5.6603724E-1,4.9302566E-1,1.1801377E-1,5.3937745E-1,5.479719E-1,3.2268637E-1,7.4417055E-1,8.1594184E-2,2.3668519E-1,-2.143593E-1,5.2360225E-1,3.966516E-1,2.4215993E-1,3.5629785E-1,-9.526034E-2,4.7716126E-2,6.476901E-1,3.2883168E-3,-7.5224996E-2,-1.3889809E-2,5.739162E-2,-2.8001785E-3,-7.897668E-2,-3.8326263E-2,5.0135855E-2,1.1285019E-2,-6.270633E-2,-1.524353E-3,5.4016116E-4,-5.393658E-2,4.626762E-2,5.2099686E-2,-6.59425E-2],"split_indices":[1,3,0,0,3,0,1,0,3,2,0,0,0,1,2,2,3,0,2,0,2,0,0,2,3,0,0,0,0,0,0,0,0,0,0,0,0,0,0,0,0],"split_type":[0,0,0,0,0,0,0,0,0,0,0,0,0,0,0,0,0,0,0,0,0,0,0,0,0,0,0,0,0,0,0,0,0,0,0,0,0,0,0,0,0],"sum_hessian":[8E1,7.9E1,1E0,3.9E1,4E1,1.9E1,2E1,2E0,3.8E1,1.8E1,1E0,1E1,1E1,5E0,3.3E1,7E0,1.1E1,2E0,8E0,4E0,6E0,2E0,3E0,2.2E1,1.1E1,3E0,4E0,4E0,7E0,5E0,3E0,1E0,3E0,3E0,3E0,1E0,1E0,2E0,2E1,4E0,7E0],"tree_param":{"num_deleted":"0","num_feature":"5","num_nodes":"41","size_leaf_vector":"1"}},{"base_weights":[-2.2498472E-3,-1.5925005E-2,1.713438E-1,4.3270506E-2,-5.135719E-2,-2.8962994E-2,2.4422988E-1,-3.909322E-2,1.8160143E-1,-2.5057492E-1,-1.6931443E-2,1.2700501E-1,-1.6300201E-2,-2.0630328E-1,3.536061E-2,2.4856503E-1,-2.3946954E-2,-2.8784117E-1,-4.046631E-3,6.7605786E-2,-3.467946E-2,1.3982106E-2,-2.1317197E-2,-3.5401917E-1,5.9418995E-2,1.0220788E-1,-4.719286E-2,1.4209747E-3,3.1897464E-1,-7.2073616E-2,-1.1331196E-1,-6.2897645E-2,-9.413455E-3,-1.7444802E-2,-1.299778E-1,1.4339448E-3,2.5304604E-2,4.9517382E-2,-3.6123466E-2,4.058075E-3,-3.4186365E-3,3.473854E-2,1.3272315E-1,-2.6341153E-2,-6.0919765E-3,1.8983651E-2,-2.3335317E-2],"categories":[],"categories_nodes":[],"categories_segments":[],"categories_sizes":[],"default_left":[0,0,0,0,0,0,0,0,0,0,0,0,0,0,0,0,0,0,0,0,0,0,0,0,0,0,0,0,0,0,0,0,0,0,0,0,0,0,0,0,0,0,0,0,0,0,0],"id":19,"left_children":[1,3,5,7,9,-1,11,13,15,17,19,-1,21,23,25,27,-1,29,-1,-1,31,-1,-1,33,35,37,-1,39,41,43,-1,-1,45,-1,-1,-1,-1,-1,-1,-1,-1,-1,-1,-1,-1,-1,-1],"loss_changes":[1.9501622E-1,1.6162665E-1,1.4073025E-1,3.3750945E-1,3.2495195E-1,0E0,2.4023157E-1,2.4383418E-1,2.1240652E-1,5.7964534E-2,1.8841769E-1,0E0,1.3645623E-2,2.5654387E-1,1.963909E-1,1.5615857E-1,0E0,8.91175E-2,0E0,0E0,1.7486757E-1,0E0,0E0,6.8585336E-2,3.683242E-3,1.7378291E-1,0E0,6.1961025E-4,1.24328434E-1,6.5992307E-4,0E0,0E0,1.8384354E-1,0E0,0E0,0E0,0E0,0E0,0E0,0E0,0E0,0E0,0E0,0E0,0E0,0E0,0E0],"parents":[2147483647,0,0,1,1,2,2,3,3,4,4,6,6,7,7,8,8,9,9,10,10,12,12,13,13,14,14,15,15,17,17,20,20,23,23,24,24,25,25,27,27,28,28,29,29,32,32],"right_children":[2,4,6,8,10,-1,12,14,16,18,20,-1,22,24,26,28,-1,30,-1,-1,32,-1,-1,34,36,38,-1,40,42,44,-1,-1,46,-1,-1,-1,-1,-1,-1,-1,-1,-1,-1,-1,-1,-1,-1],"split_conditions":[9.652518E-1,4.2347094E-1,1.7882271E-1,3.4062457E-1,4.981652E-1,-2.8962994E-2,4.593468E-1,4.1125512E-1,8.009493E-1,8.1638575E-1,5.166359E-1,1.2700501E-1,8.442131E-1,3.9298946E-1,7.2093993E-1,7.041613E-2,-2.3946954E-2,9.415699E-2,-4.046631E-3,6.7605786E-2,5.459158E-1,1.3982106E-2,-2.1317197E-2,1.7533027E-1,6.767699E-1,8.509284E-1,-4.719286E-2,5.8130544E-1,1.8286599E-1,3.483366E-1,-1.1331196E-1,-6.2897645E-2,8.112042E-1,-1.7444802E-2,-1.299778E-1,1.4339448E-3,2.5304604E-2,4.9517382E-2,-3.6123466E-2,4.058075E-3,-3.4186365E-3,3.473854E-2,1.3272315E-1,-2.6341153E-2,-6.0919765E-3,1.8983651E-2,-2.3335317E-2],"split_indices":[1,1,0,1,1,0,0,4,2,0,1,0,0,0,3,2,0,3,0,0,1,0,0,1,0,4,0,0,0,0,0,0,1,0,0,0,0,0,0,0,0,0,0,0,0,0,0],"split_type":[0,0,0,0,0,0,0,0,0,0,0,0,0,0,0,0,0,0,0,0,0,0,0,0,0,0,0,0,0,0,0,0,0,0,0,0,0,0,0,0,0,0,0,0,0,0,0],"sum_hessian":[8E1,7.5E1,5E0,2.8E1,4.7E1,1E0,4E0,1.8E1,1E1,6E0,4.1E1,2E0,2E0,5E0,1.3E1,8E0,2E0,5E0,1E0,2E0,3.9E1,1E0,1E0,3E0,2E0,1E1,3E0,2E0,6E0,2E0,3E0,4E0,3.5E1,1E0,2E0,1E0,1E0,8E0,2E0,1E0,1E0,3E0,3E0,1E0,1E0,1.7E1,1.8E1],"tree_param":{"num_deleted":"0","num_feature":"5","num_nodes":"47","size_leaf_vector":"1"}},{"base_weights":[-2.4277016E-3,-1.6879749E-2,1.150642E-1,1.1761005E-4,-1.3776292E-1,1.4996266E-1,-2.461853E-2,-9.787818E-2,2.6498832E-2,2.2346497E-2,-2.0904732E-1,2.4626084E-1,-7.900715E-3,-4.181099E-2,-2.895209E-1,2.1830858E-1,-3.2656712E-3,3.612073E-2,-9.430161E-2,2.152672E-2,1.016037E-1,2.973175E-2,-1.8119717E-2,7.599602E-2,-1.10213995E-1,-1.1437369E-1,-1.5910722E-2,3.174839E-1,-1.9753138E-2,-2.5412537E-2,1.4861552E-1,-8.274079E-4,1.7081738E-2,1.188469E-2,1.4945985E-3,2.6773883E-2,3.4492493E-3,-1.928583E-2,-6.475639E-2,2.056141E-2,1.3818055E-1,3.0687333E-3,-1.1957646E-2,-4.3048732E-2,2.268618E-3,-2.2582628E-2,6.2534645E-2],"categories":[],"categories_nodes":[],"categories_segments":[],"categories_sizes":[],"default_left":[0,0,0,0,0,0,0,0,0,0,0,0,0,0,0,0,0,0,0,0,0,0,0,0,0,0,0,0,0,0,0,0,0,0,0,0,0,0,0,0,0,0,0,0,0,0,0],"id":20,"left_children":[1,3,5,7,9,11,-1,13,15,-1,17,19,21,23,25,27,29,31,-1,-1,-1,33,-1,35,37,-1,-1,39,41,43,45,-1,-1,-1,-1,-1,-1,-1,-1,-1,-1,-1,-1,-1,-1,-1,-1],"loss_changes":[1.3948013E-1,1.5000889E-1,7.422075E-2,1.7063482E-1,1.5174343E-1,1.2356128E-1,0E0,1.3832302E-1,2.9758728E-1,0E0,1.9205263E-1,5.6335032E-2,9.698338E-3,1.0507607E-1,4.485497E-2,1.7154026E-1,1.5850654E-1,2.5852197E-3,0E0,0E0,0E0,5.3650583E-4,0E0,3.2470003E-3,2.4938367E-2,0E0,0E0,1.4657432E-1,2.2161608E-3,1.6072875E-1,9.606783E-2,0E0,0E0,0E0,0E0,0E0,0E0,0E0,0E0,0E0,0E0,0E0,0E0,0E0,0E0,0E0,0E0],"parents":[2147483647,0,0,1,1,2,2,3,3,4,4,5,5,7,7,8,8,10,10,11,11,12,12,13,13,14,14,15,15,16,16,17,17,21,21,23,23,24,24,27,27,28,28,29,29,30,30],"right_children":[2,4,6,8,10,12,-1,14,16,-1,18,20,22,24,26,28,30,32,-1,-1,-1,34,-1,36,38,-1,-1,40,42,44,46,-1,-1,-1,-1,-1,-1,-1,-1,-1,-1,-1,-1,-1,-1,-1,-1],"split_conditions":[9.4053185E-1,8.83494E-1,8.604046E-1,2.3598492E-1,9.1704145E-2,4.593468E-1,-2.461853E-2,1.7592525E-1,2.9563367E-1,2.2346497E-2,7.535906E-2,8.085333E-2,9.35635E-1,3.2815266E-1,3.9298946E-1,7.050844E-1,8.0313975E-1,3.5256886E-1,-9.430161E-2,2.152672E-2,1.016037E-1,8.442131E-1,-1.8119717E-2,4.4842413E-1,4.1120672E-1,-1.1437369E-1,-1.5910722E-2,4.8482996E-1,8.6719894E-1,4.9302566E-1,2.5416365E-1,-8.274079E-4,1.7081738E-2,1.188469E-2,1.4945985E-3,2.6773883E-2,3.4492493E-3,-1.928583E-2,-6.475639E-2,2.056141E-2,1.3818055E-1,3.0687333E-3,-1.1957646E-2,-4.3048732E-2,2.268618E-3,-2.2582628E-2,6.2534645E-2],"split_indices":[1,1,3,2,4,0,0,2,2,0,2,0,0,4,0,0,3,0,0,0,0,0,0,0,1,0,0,4,0,2,1,0,0,0,0,0,0,0,0,0,0,0,0,0,0,0,0],"split_type":[0,0,0,0,0,0,0,0,0,0,0,0,0,0,0,0,0,0,0,0,0,0,0,0,0,0,0,0,0,0,0,0,0,0,0,0,0,0,0,0,0,0,0,0,0,0,0],"sum_hessian":[8E1,7.2E1,8E0,6.4E1,8E0,7E0,1E0,1.3E1,5.1E1,2E0,6E0,4E0,3E0,1.1E1,2E0,6E0,4.5E1,2E0,4E0,2E0,2E0,2E0,1E0,4E0,7E0,1E0,1E0,4E0,2E0,4E1,5E0,1E0,1E0,1E0,1E0,3E0,1E0,6E0,1E0,2E0,2E0,1E0,1E0,8E0,3.2E1,1E0,4E0],"tree_param":{"num_deleted":"0","num_feature":"5","num_nodes":"47","size_leaf_vector":"1"}},{"base_weights":[-1.6623603E-3,8.106375E-2,-1.5820231E-2,2.1342278E-2,4.812161E-2,-1.1487688E-3,-1.2938046E-1,-3.4148313E-2,5.6913376E-2,-3.226413E-2,7.843208E-2,-6.0753968E-2,-4.499817E-2,-1.8445333E-2,2.7223779E-2,-9.263582E-2,4.4018157E-2,2.0219485E-1,-4.0797614E-2,-8.634567E-3,-1.9908715E-2,-7.1125035E-4,-7.5891498E-3,-1.6483806E-1,-1.8974032E-2,8.719364E-2,-2.440993E-1,-2.5354862E-2,9.605866E-2,1.6888237E-1,-1.1432791E-1,-7.0323946E-4,-3.182316E-3,-8.3695464E-2,-8.14288E-3,2.1207847E-2,-1.8573018E-2,1.0312386E-2,6.846359E-2,-2.0925809E-2,-8.891888E-2,6.579018E-3,-2.5081445E-2,6.1477665E-2,1.4519406E-2,-4.8838522E-2,6.214714E-3],"categories":[],"categories_nodes":[],"categories_segments":[],"categories_sizes":[],"default_left":[0,0,0,0,0,0,0,0,0,0,0,0,0,0,0,0,0,0,0,0,0,0,0,0,0,0,0,0,0,0,0,0,0,0,0,0,0,0,0,0,0,0,0,0,0,0,0],"id":21,"left_children":[1,3,5,7,-1,9,11,-1,13,15,17,-1,19,21,-1,23,25,27,29,31,-1,-1,-1,33,35,37,39,41,-1,43,45,-1,-1,-1,-1,-1,-1,-1,-1,-1,-1,-1,-1,-1,-1,-1,-1],"loss_changes":[9.615171E-2,5.343736E-2,1.16477996E-1,4.4943478E-2,0E0,1.5853032E-1,4.0256143E-2,0E0,1.9520884E-2,2.15921E-1,2.7386063E-1,0E0,3.3113891E-3,2.7044397E-4,0E0,1.3515458E-1,2.8251573E-1,2.4977762E-1,1.7348629E-1,1.2370074E-5,0E0,0E0,0E0,1.9675454E-1,5.8275733E-2,1.3367587E-1,6.6789687E-3,1.2850836E-2,0E0,3.109917E-3,5.573386E-2,0E0,0E0,0E0,0E0,0E0,0E0,0E0,0E0,0E0,0E0,0E0,0E0,0E0,0E0,0E0,0E0],"parents":[2147483647,0,0,1,1,2,2,3,3,5,5,6,6,8,8,9,9,10,10,12,12,13,13,15,15,16,16,17,17,18,18,19,19,23,23,24,24,25,25,26,26,27,27,29,29,30,30],"right_children":[2,4,6,8,-1,10,12,-1,14,16,18,-1,20,22,-1,24,26,28,30,32,-1,-1,-1,34,36,38,40,42,-1,44,46,-1,-1,-1,-1,-1,-1,-1,-1,-1,-1,-1,-1,-1,-1,-1,-1],"split_conditions":[1.2768973E-1,6.7202616E-1,9.076937E-1,9.9984884E-2,4.812161E-2,6.7114353E-1,3.8826838E-1,-3.4148313E-2,5.3485297E-2,6.798448E-1,4.2347094E-1,-6.0753968E-2,5.398411E-1,3.896313E-2,2.7223779E-2,4.9302566E-1,8.604046E-1,2.0306122E-1,6.884999E-1,3.5256886E-1,-1.9908715E-2,-7.1125035E-4,-7.5891498E-3,5.3937745E-1,6.382706E-1,6.957844E-1,1.7882271E-1,7.370356E-1,9.605866E-2,7.7760226E-1,8.227903E-1,-7.0323946E-4,-3.182316E-3,-8.3695464E-2,-8.14288E-3,2.1207847E-2,-1.8573018E-2,1.0312386E-2,6.846359E-2,-2.0925809E-2,-8.891888E-2,6.579018E-3,-2.5081445E-2,6.1477665E-2,1.4519406E-2,-4.8838522E-2,6.214714E-3],"split_indices":[0,3,4,4,0,4,3,0,0,1,1,0,0,0,0,2,3,1,4,0,0,0,0,0,2,2,0,0,0,0,4,0,0,0,0,0,0,0,0,0,0,0,0,0,0,0,0],"split_type":[0,0,0,0,0,0,0,0,0,0,0,0,0,0,0,0,0,0,0,0,0,0,0,0,0,0,0,0,0,0,0,0,0,0,0,0,0,0,0,0,0,0,0,0,0,0,0],"sum_hessian":[8E1,1.1E1,6.9E1,7E0,4E0,6.2E1,7E0,1E0,6E0,4.5E1,1.7E1,3E0,4E0,2E0,4E0,2.5E1,2E1,8E0,9E0,2E0,2E0,1E0,1E0,1.2E1,1.3E1,1.8E1,2E0,3E0,5E0,2E0,7E0,1E0,1E0,6E0,6E0,4E0,9E0,1.4E1,4E0,1E0,1E0,2E0,1E0,1E0,1E0,5E0,2E0],"tree_param":{"num_deleted":"0","num_feature":"5","num_nodes":"47","size_leaf_vector":"1"}},{"base_weights":[-1.9165087E-3,-1.0169807E-2,1.02944694E-1,-2.8439907E-2,4.2408466E-2,-1.778698E-2,1.4724961E-1,1.2376841E-2,-8.5078634E-2,2.25737E-1,-1.753223E-2,7.9220586E-2,-1.8652597E-2,3.1880964E-2,-1.4187431E-1,-1.5697739E-1,1.4163277E-2,8.607102E-3,8.034783E-2,-4.248133E-2,1.7954508E-4,8.555031E-3,-1.69487E-2,-4.248848E-2,4.2385545E-2,1.28328325E-2,-6.530495E-2,1.166153E-2,-2.0402995E-1,8.567206E-2,-5.970605E-2,2.3357868E-2,-2.0820094E-2,7.796002E-4,3.326163E-2,-1.6712666E-2,1.580639E-2,-9.257401E-2,-3.0061258E-2,3.265091E-2,-4.522419E-3,7.5406553E-3,-4.587784E-2,-5.1801684E-3,2.5105936E-2],"categories":[],"categories_nodes":[],"categories_segments":[],"categories_sizes":[],"default_left":[0,0,0,0,0,0,0,0,0,0,0,0,0,0,0,0,0,0,0,0,0,0,0,0,0,0,0,0,0,0,0,0,0,0,0,0,0,0,0,0,0,0,0,0,0],"id":22,"left_children":[1,3,5,7,9,-1,11,13,15,17,19,-1,21,23,25,27,29,-1,-1,-1,31,-1,-1,-1,33,-1,-1,35,37,39,41,43,-1,-1,-1,-1,-1,-1,-1,-1,-1,-1,-1,-1,-1],"loss_changes":[7.114844E-2,7.4212484E-2,5.185716E-2,1.3282612E-1,2.2373447E-1,0E0,1.0182821E-1,1.0681322E-1,1.7347218E-1,3.3783555E-2,3.5186045E-2,0E0,6.9661746E-3,6.25049E-2,6.5304175E-2,1.1346778E-1,6.32205E-2,0E0,0E0,0E0,2.5812209E-2,0E0,0E0,0E0,8.145787E-2,0E0,0E0,1.399106E-2,8.848387E-2,1.5643056E-2,5.129751E-2,3.0855285E-2,0E0,0E0,0E0,0E0,0E0,0E0,0E0,0E0,0E0,0E0,0E0,0E0,0E0],"parents":[2147483647,0,0,1,1,2,2,3,3,4,4,6,6,7,7,8,8,9,9,10,10,12,12,13,13,14,14,15,15,16,16,20,20,24,24,27,27,28,28,29,29,30,30,31,31],"right_children":[2,4,6,8,10,-1,12,14,16,18,20,-1,22,24,26,28,30,-1,-1,-1,32,-1,-1,-1,34,-1,-1,36,38,40,42,44,-1,-1,-1,-1,-1,-1,-1,-1,-1,-1,-1,-1,-1],"split_conditions":[9.652518E-1,6.816137E-1,1.7882271E-1,3.7785056E-1,7.7760226E-1,-1.778698E-2,4.593468E-1,8.420231E-1,5.80544E-1,1.6967991E-1,8.1638575E-1,7.9220586E-2,8.442131E-1,1.8075364E-2,1.2016465E-1,7.041613E-2,7.3164773E-1,8.607102E-3,8.034783E-2,-4.248133E-2,9.7951055E-1,8.555031E-3,-1.69487E-2,-4.248848E-2,2.3859686E-1,1.28328325E-2,-6.530495E-2,3.4062457E-1,5.3937745E-1,5.479719E-1,8.009493E-1,6.366443E-1,-2.0820094E-2,7.796002E-4,3.326163E-2,-1.6712666E-2,1.580639E-2,-9.257401E-2,-3.0061258E-2,3.265091E-2,-4.522419E-3,7.5406553E-3,-4.587784E-2,-5.1801684E-3,2.5105936E-2],"split_indices":[1,0,0,0,0,0,0,3,2,1,0,0,0,3,0,2,4,0,0,0,0,0,0,0,0,0,0,1,0,0,2,4,0,0,0,0,0,0,0,0,0,0,0,0,0],"split_type":[0,0,0,0,0,0,0,0,0,0,0,0,0,0,0,0,0,0,0,0,0,0,0,0,0,0,0,0,0,0,0,0,0,0,0,0,0,0,0,0,0,0,0,0,0],"sum_hessian":[8E1,7.5E1,5E0,5.6E1,1.9E1,1E0,4E0,3.3E1,2.3E1,4E0,1.5E1,2E0,2E0,3E1,3E0,1.3E1,1E1,1E0,3E0,1E0,1.4E1,1E0,1E0,1E0,2.9E1,1E0,2E0,3E0,1E1,5E0,5E0,1.1E1,3E0,1.9E1,1E1,1E0,2E0,4E0,6E0,4E0,1E0,3E0,2E0,7E0,4E0],"tree_param":{"num_deleted":"0","num_feature":"5","num_nodes":"45","size_leaf_vector":"1"}},{"base_weights":[-2.5273548E-3,3.9362147E-2,-7.573888E-3,-1.6947787E-2,6.72173E-2,2.4019571E-2,-4.41828E-2,9.9665776E-2,-3.090159E-2,-1.7586758E-2,9.370145E-2,-1.1886915E-1,-1.4794707E-2,3.853798E-3,1.7056131E-1,5.00679E-4,-1.4406395E-2,-9.983603E-2,1.8919127E-2,1.5233095E-1,-7.1201324E-3,-1.821373E-1,-6.446791E-2,1.5338819E-2,-9.350692E-2,1.16207125E-2,-1.511879E-2,6.337662E-2,7.271862E-3,-5.5426743E-2,1.4000703E-2,1.4523077E-2,-3.160553E-2,1.6566355E-2,7.9021074E-2,-1.0474634E-2,1.5609169E-2,-6.5933995E-2,-2.513466E-2,2.872324E-3,-3.3242457E-2,2.2107698E-2,-1.191176E-2,7.424164E-3,-3.924874E-2],"categories":[],"categories_nodes":[],"categories_segments":[],"categories_sizes":[],"default_left":[0,0,0,0,0,0,0,0,0,0,0,0,0,0,0,0,0,0,0,0,0,0,0,0,0,0,0,0,0,0,0,0,0,0,0,0,0,0,0,0,0,0,0,0,0],"id":23,"left_children":[1,-1,3,5,7,9,11,13,15,17,19,21,23,25,27,-1,-1,29,31,33,35,37,39,41,43,-1,-1,-1,-1,-1,-1,-1,-1,-1,-1,-1,-1,-1,-1,-1,-1,-1,-1,-1,-1],"loss_changes":[5.5660296E-2,0E0,5.65249E-2,8.027925E-2,3.1734113E-2,8.5724905E-2,9.2621595E-2,4.6891183E-2,1.7529395E-3,5.8937885E-2,6.610692E-2,2.9560387E-2,7.733433E-2,9.521465E-3,1.8696986E-2,0E0,0E0,8.326942E-2,5.6408554E-2,6.0958207E-2,1.0037231E-2,9.807944E-5,2.8510056E-2,8.001522E-2,4.2959206E-2,0E0,0E0,0E0,0E0,0E0,0E0,0E0,0E0,0E0,0E0,0E0,0E0,0E0,0E0,0E0,0E0,0E0,0E0,0E0,0E0],"parents":[2147483647,0,0,2,2,3,3,4,4,5,5,6,6,7,7,8,8,9,9,10,10,11,11,12,12,13,13,14,14,17,17,18,18,19,19,20,20,21,21,22,22,23,23,24,24],"right_children":[2,-1,4,6,8,10,12,14,16,18,20,22,24,26,28,-1,-1,30,32,34,36,38,40,42,44,-1,-1,-1,-1,-1,-1,-1,-1,-1,-1,-1,-1,-1,-1,-1,-1,-1,-1,-1,-1],"split_conditions":[3.8834736E-2,3.9362147E-2,9.4053185E-1,4.2347094E-1,8.442131E-1,3.4062457E-1,5.459158E-1,1.7882271E-1,9.35635E-1,4.1125512E-1,6.1585116E-1,5.3937745E-1,8.83494E-1,8.085333E-2,4.593468E-1,5.00679E-4,-1.4406395E-2,3.9298946E-1,9.076937E-1,2.6069453E-1,4.2053577E-1,1.9438003E-1,5.899559E-1,4.1978085E-1,9.1704145E-2,1.16207125E-2,-1.511879E-2,6.337662E-2,7.271862E-3,-5.5426743E-2,1.4000703E-2,1.4523077E-2,-3.160553E-2,1.6566355E-2,7.9021074E-2,-1.0474634E-2,1.5609169E-2,-6.5933995E-2,-2.513466E-2,2.872324E-3,-3.3242457E-2,2.2107698E-2,-1.191176E-2,7.424164E-3,-3.924874E-2],"split_indices":[0,0,1,1,0,1,1,0,0,4,2,0,1,0,0,0,0,0,4,2,1,4,4,4,4,0,0,0,0,0,0,0,0,0,0,0,0,0,0,0,0,0,0,0,0],"split_type":[0,0,0,0,0,0,0,0,0,0,0,0,0,0,0,0,0,0,0,0,0,0,0,0,0,0,0,0,0,0,0,0,0,0,0,0,0,0,0,0,0,0,0,0,0],"sum_hessian":[8E1,2E0,7.8E1,7E1,8E0,2.8E1,4.2E1,6E0,2E0,1.8E1,1E1,1.1E1,3.1E1,3E0,3E0,1E0,1E0,5E0,1.3E1,6E0,4E0,4E0,7E0,2.3E1,8E0,2E0,1E0,2E0,1E0,3E0,2E0,1.1E1,2E0,4E0,2E0,3E0,1E0,2E0,2E0,3E0,4E0,1.1E1,1.2E1,2E0,6E0],"tree_param":{"num_deleted":"0","num_feature":"5","num_nodes":"45","size_leaf_vector":"1"}},{"base_weights":[-1.8708028E-3,3.993702E-2,-5.222273E-3,-9.989974E-3,8.786154E-2,-4.8672273E-3,-5.9897806E-2,4.1990664E-2,2.3836136E-2,-7.5253725E-2,3.3640654E-3,9.794426E-3,9.318352E-4,-3.8585663E-3,-5.7887845E-2,1.6965356E-2,-5.1281385E-2,-1.0951081E-2,2.3904992E-2,-1.9651033E-2,9.6224435E-3,3.1070137E-2,-2.1347854E-2],"categories":[],"categories_nodes":[],"categories_segments":[],"categories_sizes":[],"default_left":[0,0,0,0,0,0,0,0,0,0,0,0,0,0,0,0,0,0,0,0,0,0,0],"id":24,"left_children":[1,-1,3,5,7,9,-1,-1,11,13,15,-1,-1,17,-1,19,21,-1,-1,-1,-1,-1,-1],"loss_changes":[3.734196E-2,0E0,3.6381394E-2,7.3843576E-2,1.0008454E-2,4.428542E-2,0E0,0E0,4.4660678E-4,6.6484414E-2,5.2154157E-2,0E0,0E0,1.9272093E-2,0E0,7.188028E-2,5.0463162E-2,0E0,0E0,0E0,0E0,0E0,0E0],"parents":[2147483647,0,0,2,2,3,3,4,4,5,5,8,8,9,9,10,10,13,13,15,15,16,16],"right_children":[2,-1,4,6,8,10,-1,-1,12,14,16,-1,-1,18,-1,20,22,-1,-1,-1,-1,-1,-1],"split_conditions":[2.7616773E-2,3.993702E-2,9.6865195E-1,9.5307183E-1,9.9593127E-1,1.0675607E-1,-5.9897806E-2,4.1990664E-2,1.2016465E-1,9.387329E-2,8.009493E-1,9.794426E-3,9.318352E-4,5.80544E-1,-5.7887845E-2,2.4872415E-1,2.0668437E-1,-1.0951081E-2,2.3904992E-2,-1.9651033E-2,9.6224435E-3,3.1070137E-2,-2.1347854E-2],"split_indices":[0,0,3,3,3,4,0,0,0,4,2,0,0,2,0,1,1,0,0,0,0,0,0],"split_type":[0,0,0,0,0,0,0,0,0,0,0,0,0,0,0,0,0,0,0,0,0,0,0],"sum_hessian":[8E1,1E0,7.9E1,7.6E1,3E0,7.5E1,1E0,1E0,2E0,7E0,6.8E1,1E0,1E0,5E0,2E0,5.5E1,1.3E1,4E0,1E0,8E0,4.7E1,1E0,1.2E1],"tree_param":{"num_deleted":"0","num_feature":"5","num_nodes":"23","size_leaf_vector":"1"}},{"base_weights":[-1.4635958E-3,-3.5771944E-2,1.4991045E-3,8.844295E-3,-5.0801657E-2,5.4438528E-2,-3.3093502E-3,-8.644104E-2,2.4267673E-2,2.1048682E-2,7.828446E-2,-2.1946326E-2,4.1833315E-2,-3.5224915E-2,-6.0017905E-3,1.0469056E-2,-1.1429787E-3,-2.9453278E-2,2.7988054E-2,-5.6599826E-2,2.1157717E-2,1.4809608E-1,-2.2549261E-3,-3.492737E-3,7.919312E-4,9.734345E-3,-2.5639117E-2,-2.7565015E-2,-4.6285632E-4,1.7165147E-2,-2.737564E-2,-4.9321176E-3,5.8002092E-2,4.91375E-2,-8.922434E-3],"categories":[],"categories_nodes":[],"categories_segments":[],"categories_sizes":[],"default_left":[0,0,0,0,0,0,0,0,0,0,0,0,0,0,0,0,0,0,0,0,0,0,0,0,0,0,0,0,0,0,0,0,0,0,0],"id":25,"left_children":[1,-1,3,5,7,9,11,13,15,17,-1,19,21,-1,23,-1,-1,25,-1,27,29,31,33,-1,-1,-1,-1,-1,-1,-1,-1,-1,-1,-1,-1],"loss_changes":[2.8442537E-2,0E0,3.118203E-2,3.9523825E-2,2.8851971E-2,9.793726E-2,4.8873484E-2,1.673672E-2,1.3267219E-3,5.3826876E-2,0E0,6.2439464E-2,7.99779E-2,0E0,1.7696587E-4,0E0,0E0,3.397708E-2,0E0,4.4538178E-2,8.223647E-2,4.0400207E-2,6.4203955E-2,0E0,0E0,0E0,0E0,0E0,0E0,0E0,0E0,0E0,0E0,0E0,0E0],"parents":[2147483647,0,0,2,2,3,3,4,4,5,5,6,6,7,7,8,8,9,9,11,11,12,12,14,14,17,17,19,19,20,20,21,21,22,22],"right_children":[2,-1,4,6,8,10,12,14,16,18,-1,20,22,-1,24,-1,-1,26,-1,28,30,32,34,-1,-1,-1,-1,-1,-1,-1,-1,-1,-1,-1,-1],"split_conditions":[1.8075364E-2,-3.5771944E-2,9.076937E-1,2.3978736E-1,8.766615E-1,2.3668519E-1,6.7114353E-1,9.438916E-1,8.085333E-2,8.4209144E-1,7.828446E-2,5.6603724E-1,7.3164773E-1,-3.5224915E-2,5.398411E-1,1.0469056E-2,-1.1429787E-3,4.8674214E-1,2.7988054E-2,4.9302566E-1,8.604046E-1,2.5299016E-1,3.2434502E-1,-3.492737E-3,7.919312E-4,9.734345E-3,-2.5639117E-2,-2.7565015E-2,-4.6285632E-4,1.7165147E-2,-2.737564E-2,-4.9321176E-3,5.8002092E-2,4.91375E-2,-8.922434E-3],"split_indices":[3,0,4,3,1,3,4,3,0,1,0,3,4,0,0,0,0,1,0,2,3,0,3,0,0,0,0,0,0,0,0,0,0,0,0],"split_type":[0,0,0,0,0,0,0,0,0,0,0,0,0,0,0,0,0,0,0,0,0,0,0,0,0,0,0,0,0,0,0,0,0,0,0],"sum_hessian":[8E1,1E0,7.9E1,7E1,9E0,1.4E1,5.6E1,6E0,3E0,1.3E1,1E0,4E1,1.6E1,4E0,2E0,2E0,1E0,8E0,5E0,2.2E1,1.8E1,4E0,1.2E1,1E0,1E0,4E0,4E0,1.3E1,9E0,1.4E1,4E0,1E0,3E0,1E0,1.1E1],"tree_param":{"num_deleted":"0","num_feature":"5","num_nodes":"35","size_leaf_vector":"1"}},{"base_weights":[-2.3994917E-5,-6.3407063E-3,5.121422E-2,-1.8777432E-2,2.9994061E-2,8.156999E-2,-7.1229935E-3,1.4301573E-2,-3.8088337E-2,1.2872848E-1,-4.9170176E-3,1.1701107E-2,4.4261552E-2,3.5202028E-3,-9.5541E-3,-7.163906E-3,6.654167E-2,7.0852917E-3,-6.854148E-2,6.624985E-3,4.4960693E-2,-2.6582338E-2,7.3900223E-3,8.375359E-3,-5.5423738E-3,-3.9722588E-2,4.6639442E-2,-1.1583964E-1,3.490756E-2,-1.4485216E-1,-4.7775693E-2,2.3488306E-2,-3.872776E-2,1.2010575E-2,-2.0296039E-2,1.9446619E-2,-1.2095833E-2,-5.5380538E-2,3.2526972E-3,4.093051E-2,-2.758255E-3,-9.698582E-3,-5.147515E-2,-3.5795975E-3,-2.4688086E-2,-3.144019E-3,1.990391E-2,-1.5939904E-2,6.731987E-4],"categories":[],"categories_nodes":[],"categories_segments":[],"categories_sizes":[],"default_left":[0,0,0,0,0,0,0,0,0,0,0,0,0,0,0,0,0,0,0,0,0,0,0,0,0,0,0,0,0,0,0,0,0,0,0,0,0,0,0,0,0,0,0,0,0,0,0,0,0],"id":26,"left_children":[1,3,5,7,9,11,13,15,17,19,21,23,-1,-1,-1,25,-1,27,29,-1,-1,-1,31,-1,-1,33,35,37,39,41,43,45,47,-1,-1,-1,-1,-1,-1,-1,-1,-1,-1,-1,-1,-1,-1,-1,-1],"loss_changes":[2.6540952E-2,3.355085E-2,1.6518861E-2,3.5677925E-2,6.612454E-2,2.5928508E-2,2.2385756E-3,9.5126614E-2,4.863441E-2,7.963046E-3,1.61046E-2,2.4731776E-3,0E0,0E0,0E0,3.6887966E-2,0E0,5.5344436E-2,2.6357256E-2,0E0,0E0,0E0,1.1303489E-2,0E0,0E0,3.1668708E-2,1.5262712E-2,2.8134283E-2,5.9462406E-2,6.484702E-3,2.1288574E-2,1.6709315E-2,2.480064E-3,0E0,0E0,0E0,0E0,0E0,0E0,0E0,0E0,0E0,0E0,0E0,0E0,0E0,0E0,0E0,0E0],"parents":[2147483647,0,0,1,1,2,2,3,3,4,4,5,5,6,6,7,7,8,8,9,9,10,10,11,11,15,15,17,17,18,18,22,22,25,25,26,26,27,27,28,28,29,29,30,30,31,31,32,32],"right_children":[2,4,6,8,10,12,14,16,18,20,22,24,-1,-1,-1,26,-1,28,30,-1,-1,-1,32,-1,-1,34,36,38,40,42,44,46,48,-1,-1,-1,-1,-1,-1,-1,-1,-1,-1,-1,-1,-1,-1,-1,-1],"split_conditions":[9.4053185E-1,6.816137E-1,4.593468E-1,2.5086054E-1,7.7760226E-1,1.7882271E-1,9.35635E-1,2.3859686E-1,4.6467382E-1,1.6967991E-1,8.1638575E-1,8.085333E-2,4.4261552E-2,3.5202028E-3,-9.5541E-3,6.7202616E-1,6.654167E-2,2.539154E-1,2.7976352E-1,6.624985E-3,4.4960693E-2,-2.6582338E-2,9.7951055E-1,8.375359E-3,-5.5423738E-3,1.6621543E-1,5.618667E-1,3.9298946E-1,3.2434502E-1,2.5620693E-1,4.8004597E-1,6.366443E-1,4.0383616E-1,1.2010575E-2,-2.0296039E-2,1.9446619E-2,-1.2095833E-2,-5.5380538E-2,3.2526972E-3,4.093051E-2,-2.758255E-3,-9.698582E-3,-5.147515E-2,-3.5795975E-3,-2.4688086E-2,-3.144019E-3,1.990391E-2,-1.5939904E-2,6.731987E-4],"split_indices":[1,0,0,0,0,0,0,0,1,1,0,0,0,0,0,3,0,3,0,0,0,0,0,0,0,3,4,0,3,0,0,4,1,0,0,0,0,0,0,0,0,0,0,0,0,0,0,0,0],"split_type":[0,0,0,0,0,0,0,0,0,0,0,0,0,0,0,0,0,0,0,0,0,0,0,0,0,0,0,0,0,0,0,0,0,0,0,0,0,0,0,0,0,0,0,0,0,0,0,0,0],"sum_hessian":[8E1,7.2E1,8E0,5.4E1,1.8E1,5E0,3E0,2E1,3.4E1,4E0,1.4E1,3E0,2E0,2E0,1E0,1.9E1,1E0,1.4E1,2E1,1E0,3E0,1E0,1.3E1,2E0,1E0,1.2E1,7E0,2E0,1.2E1,3E0,1.7E1,1E1,3E0,3E0,9E0,6E0,1E0,1E0,1E0,3E0,9E0,1E0,2E0,9E0,8E0,6E0,4E0,2E0,1E0],"tree_param":{"num_deleted":"0","num_feature":"5","num_nodes":"49","size_leaf_vector":"1"}},{"base_weights":[3.5059894E-4,2.845459E-2,-2.0162344E-3,-7.2917407E-3,4.0411845E-2,1.552983E-2,-2.216751E-2,6.494776E-2,-6.494999E-3,-3.294144E-2,3.898897E-2,-6.207657E-2,-6.983381E-3,8.898735E-3,3.5409167E-2,2.8160098E-3,-8.121014E-3,-1.7322964E-3,-4.7073558E-2,1.0846392E-1,8.5997265E-3,-1.162262E-1,-3.111267E-2,1.8955866E-2,-3.5728574E-2,6.7001344E-3,-4.7109607E-3,6.782818E-3,-1.1343528E-2,1.1765958E-2,4.9390413E-2,-3.8769722E-3,2.130561E-2,-4.687195E-2,5.722046E-4,4.331589E-4,-2.1650791E-2,-2.0712376E-2,1.2347412E-2,5.1622395E-3,-1.8406417E-2],"categories":[],"categories_nodes":[],"categories_segments":[],"categories_sizes":[],"default_left":[0,0,0,0,0,0,0,0,0,0,0,0,0,0,0,0,0,0,0,0,0,0,0,0,0,0,0,0,0,0,0,0,0,0,0,0,0,0,0,0,0],"id":27,"left_children":[1,-1,3,5,7,9,11,13,15,17,19,21,23,25,-1,-1,-1,27,-1,29,31,33,35,37,39,-1,-1,-1,-1,-1,-1,-1,-1,-1,-1,-1,-1,-1,-1,-1,-1],"loss_changes":[1.8307786E-2,0E0,1.820104E-2,2.4787422E-2,1.0779959E-2,3.4260087E-2,2.6229803E-2,1.6801108E-2,1.561165E-3,3.841828E-2,4.1293073E-2,1.6504098E-2,2.5283013E-2,1.6728243E-3,0E0,0E0,0E0,8.759016E-3,0E0,1.6880006E-2,2.1069413E-2,1.9205816E-2,1.2134157E-2,3.800869E-2,2.2760507E-2,0E0,0E0,0E0,0E0,0E0,0E0,0E0,0E0,0E0,0E0,0E0,0E0,0E0,0E0,0E0,0E0],"parents":[2147483647,0,0,2,2,3,3,4,4,5,5,6,6,7,7,8,8,9,9,10,10,11,11,12,12,13,13,17,17,19,19,20,20,21,21,22,22,23,23,24,24],"right_children":[2,-1,4,6,8,10,12,14,16,18,20,22,24,26,-1,-1,-1,28,-1,30,32,34,36,38,40,-1,-1,-1,-1,-1,-1,-1,-1,-1,-1,-1,-1,-1,-1,-1,-1],"split_conditions":[2.7616773E-2,2.845459E-2,9.4053185E-1,4.2347094E-1,4.593468E-1,2.1272789E-1,5.459158E-1,1.7882271E-1,9.35635E-1,1.7592525E-1,3.3655423E-1,4.5726517E-1,8.112042E-1,8.085333E-2,3.5409167E-2,2.8160098E-3,-8.121014E-3,6.366443E-1,-4.7073558E-2,4.8482996E-1,4.0383616E-1,6.816137E-1,7.3521614E-1,2.0171921E-1,2.1458912E-1,6.7001344E-3,-4.7109607E-3,6.782818E-3,-1.1343528E-2,1.1765958E-2,4.9390413E-2,-3.8769722E-3,2.130561E-2,-4.687195E-2,5.722046E-4,4.331589E-4,-2.1650791E-2,-2.0712376E-2,1.2347412E-2,5.1622395E-3,-1.8406417E-2],"split_indices":[0,0,1,1,0,2,1,0,0,2,2,2,1,0,0,0,0,4,0,4,1,0,4,3,3,0,0,0,0,0,0,0,0,0,0,0,0,0,0,0,0],"split_type":[0,0,0,0,0,0,0,0,0,0,0,0,0,0,0,0,0,0,0,0,0,0,0,0,0,0,0,0,0,0,0,0,0,0,0,0,0,0,0,0,0],"sum_hessian":[8E1,1E0,7.9E1,7.1E1,8E0,2.8E1,4.3E1,5E0,3E0,9E0,1.9E1,1.1E1,3.2E1,3E0,2E0,2E0,1E0,8E0,1E0,5E0,1.4E1,3E0,8E0,1.7E1,1.5E1,2E0,1E0,5E0,3E0,3E0,2E0,1.1E1,3E0,2E0,1E0,5E0,3E0,3E0,1.4E1,5E0,1E1],"tree_param":{"num_deleted":"0","num_feature":"5","num_nodes":"41","size_leaf_vector":"1"}},{"base_weights":[2.2518488E-4,2.4186516E-2,-1.7875433E-3,1.8358834E-4,-2.3626043E-2,1.7847061E-2,-9.331043E-3,-7.1993377E-3,6.365051E-2,-3.6224276E-2,8.609235E-3,-3.3197403E-2,1.9518662E-2,-1.0337068E-2,9.2484474E-2,-5.298547E-2,2.8008651E-2,5.470791E-2,-2.878189E-3,-2.354293E-2,-7.7435636E-4,1.2899046E-2,-7.934332E-3,6.20842E-4,3.153158E-2,-2.0229187E-2,1.1070633E-2,1.8395234E-2,1.3056279E-3,6.447538E-3,-1.0201631E-2],"categories":[],"categories_nodes":[],"categories_segments":[],"categories_sizes":[],"default_left":[0,0,0,0,0,0,0,0,0,0,0,0,0,0,0,0,0,0,0,0,0,0,0,0,0,0,0,0,0,0,0],"id":28,"left_children":[1,-1,3,5,-1,7,9,11,13,15,17,19,21,-1,23,25,27,-1,29,-1,-1,-1,-1,-1,-1,-1,-1,-1,-1,-1,-1],"loss_changes":[1.3251241E-2,0E0,1.2151256E-2,1.3443384E-2,0E0,3.2580167E-2,2.5400411E-2,1.3845678E-2,3.1474978E-2,2.4093088E-2,6.439512E-2,1.3660161E-2,1.192924E-2,0E0,8.911356E-3,2.4561808E-2,3.6729975E-3,0E0,2.4246521E-2,0E0,0E0,0E0,0E0,0E0,0E0,0E0,0E0,0E0,0E0,0E0,0E0],"parents":[2147483647,0,0,2,2,3,3,5,5,6,6,7,7,8,8,9,9,10,10,11,11,12,12,14,14,15,15,16,16,18,18],"right_children":[2,-1,4,6,-1,8,10,12,14,16,18,20,22,-1,24,26,28,-1,30,-1,-1,-1,-1,-1,-1,-1,-1,-1,-1,-1,-1],"split_conditions":[2.7616773E-2,2.4186516E-2,9.717121E-1,4.2347094E-1,-2.3626043E-2,6.9289035E-1,6.798448E-1,2.747218E-1,4.7716126E-2,6.917144E-1,6.839638E-1,3.7673897E-1,6.1585116E-1,-1.0337068E-2,3.896313E-2,9.0315104E-1,6.884999E-1,5.470791E-2,5.612434E-1,-2.354293E-2,-7.7435636E-4,1.2899046E-2,-7.934332E-3,6.20842E-4,3.153158E-2,-2.0229187E-2,1.1070633E-2,1.8395234E-2,1.3056279E-3,6.447538E-3,-1.0201631E-2],"split_indices":[0,0,4,1,0,4,1,1,2,3,1,3,2,0,0,0,4,0,2,0,0,0,0,0,0,0,0,0,0,0,0],"split_type":[0,0,0,0,0,0,0,0,0,0,0,0,0,0,0,0,0,0,0,0,0,0,0,0,0,0,0,0,0,0,0],"sum_hessian":[8E1,1E0,7.9E1,7.8E1,1E0,2.7E1,5.1E1,1.8E1,9E0,2E1,3.1E1,9E0,9E0,2E0,7E0,1.6E1,4E0,1E0,3E1,3E0,6E0,6E0,3E0,1E0,6E0,1.4E1,2E0,1E0,3E0,1.7E1,1.3E1],"tree_param":{"num_deleted":"0","num_feature":"5","num_nodes":"31","size_leaf_vector":"1"}},{"base_weights":[9.543101E-4,-1.5501365E-3,4.955244E-2,1.4422033E-3,-3.4794047E-2,1.9627381E-2,2.9039383E-4,1.4520365E-2,-8.696426E-3,-5.166227E-3,4.6719186E-2,-3.339615E-2,-1.1590776E-3,2.0136746E-2,-2.7930101E-2,-2.1930423E-2,1.0869462E-1,2.1040726E-2,-6.477213E-3,1.4188728E-2,-6.4176833E-4,-2.8469088E-3,-1.8731548E-2,-1.5098382E-2,-1.5174867E-4,4.9873356E-2,7.1913246E-3,-1.0828078E-2,3.8209078E-3],"categories":[],"categories_nodes":[],"categories_segments":[],"categories_sizes":[],"default_left":[0,0,0,0,0,0,0,0,0,0,0,0,0,0,0,0,0,0,0,0,0,0,0,0,0,0,0,0,0],"id":29,"left_children":[1,3,5,7,-1,-1,-1,9,11,13,15,-1,17,19,21,23,25,-1,27,-1,-1,-1,-1,-1,-1,-1,-1,-1,-1],"loss_changes":[9.935438E-3,2.6875516E-2,3.0212319E-3,1.0336062E-2,0E0,0E0,0E0,2.1793455E-2,3.3905562E-2,1.3234283E-2,5.769338E-2,0E0,1.6378818E-2,6.7561045E-3,7.0436615E-3,4.233379E-3,3.014575E-2,0E0,2.3221157E-2,0E0,0E0,0E0,0E0,0E0,0E0,0E0,0E0,0E0,0E0],"parents":[2147483647,0,0,1,1,2,2,3,3,7,7,8,8,9,9,10,10,12,12,13,13,14,14,15,15,16,16,18,18],"right_children":[2,4,6,8,-1,-1,-1,10,12,14,16,-1,18,20,22,24,26,-1,28,-1,-1,-1,-1,-1,-1,-1,-1,-1,-1],"split_conditions":[9.6865195E-1,9.5307183E-1,7.7760226E-1,3.7785056E-1,-3.4794047E-2,1.9627381E-2,2.9039383E-4,2.3859686E-1,3.966516E-1,1.2768973E-1,2.7396113E-1,-3.339615E-2,8.328441E-2,5.088141E-1,5.618667E-1,2.0171921E-1,3.3566007E-1,2.1040726E-2,3.8826838E-1,1.4188728E-2,-6.4176833E-4,-2.8469088E-3,-1.8731548E-2,-1.5098382E-2,-1.5174867E-4,4.9873356E-2,7.1913246E-3,-1.0828078E-2,3.8209078E-3],"split_indices":[3,3,0,0,0,0,0,0,0,0,2,0,3,1,4,3,0,0,3,0,0,0,0,0,0,0,0,0,0],"split_type":[0,0,0,0,0,0,0,0,0,0,0,0,0,0,0,0,0,0,0,0,0,0,0,0,0,0,0,0,0],"sum_hessian":[8E1,7.7E1,3E0,7.6E1,1E0,2E0,1E0,3.3E1,4.3E1,2.1E1,1.2E1,2E0,4.1E1,1E1,1.1E1,6E0,6E0,2E0,3.9E1,4E0,6E0,8E0,3E0,2E0,4E0,3E0,3E0,1.5E1,2.4E1],"tree_param":{"num_deleted":"0","num_feature":"5","num_nodes":"29","size_leaf_vector":"1"}},{"base_weights":[6.625093E-4,2.2089481E-3,-1.845789E-2,1.843071E-2,6.8157533E-4,-1.2637237E-2,8.241653E-3,4.2676926E-4,-6.2787056E-2,7.160835E-2,1.3251608E-3,-2.099053E-2,2.0163756E-2,7.564068E-3,-4.069786E-2,3.9020922E-2,2.4475574E-2,2.3058679E-2,-1.1759122E-2,2.9364827E-3,-1.9811554E-2,-5.378342E-3,8.615789E-3,5.209351E-3,-3.2755854E-3,9.258843E-3,7.9708104E-4,1.1232458E-2,-6.5475083E-3,-5.5465624E-3,5.471993E-3],"categories":[],"categories_nodes":[],"categories_segments":[],"categories_sizes":[],"default_left":[0,0,0,0,0,0,0,0,0,0,0,0,0,0,0,0,0,0,0,0,0,0,0,0,0,0,0,0,0,0,0],"id":30,"left_children":[1,3,-1,-1,5,7,9,11,13,15,17,19,21,23,-1,-1,25,27,29,-1,-1,-1,-1,-1,-1,-1,-1,-1,-1,-1,-1],"loss_changes":[7.925775E-3,7.1950336E-3,0E0,0E0,8.058761E-3,1.9026365E-2,2.2257145E-2,1.0568359E-2,3.1786107E-2,1.0593707E-2,1.3636422E-2,1.728468E-2,4.7514937E-3,9.1414974E-4,0E0,0E0,4.754425E-4,1.2437164E-2,6.3935244E-3,0E0,0E0,0E0,0E0,0E0,0E0,0E0,0E0,0E0,0E0,0E0,0E0],"parents":[2147483647,0,0,1,1,4,4,5,5,6,6,7,7,8,8,9,9,10,10,11,11,12,12,13,13,16,16,17,17,18,18],"right_children":[2,4,-1,-1,6,8,10,12,14,16,18,20,22,24,-1,-1,26,28,30,-1,-1,-1,-1,-1,-1,-1,-1,-1,-1,-1,-1],"split_conditions":[9.717121E-1,2.7616773E-2,-1.845789E-2,1.843071E-2,3.500784E-1,2.7473179E-1,3.8539663E-1,7.08911E-1,1.8286599E-1,2.5086054E-1,4.2347094E-1,4.8674214E-1,4.043359E-2,1.2768973E-1,-4.069786E-2,3.9020922E-2,9.4013345E-1,7.2093993E-1,7.9834515E-1,2.9364827E-3,-1.9811554E-2,-5.378342E-3,8.615789E-3,5.209351E-3,-3.2755854E-3,9.258843E-3,7.9708104E-4,1.1232458E-2,-6.5475083E-3,-5.5465624E-3,5.471993E-3],"split_indices":[4,0,0,0,4,4,4,1,0,0,1,1,4,0,0,0,0,3,3,0,0,0,0,0,0,0,0,0,0,0,0],"split_type":[0,0,0,0,0,0,0,0,0,0,0,0,0,0,0,0,0,0,0,0,0,0,0,0,0,0,0,0,0,0,0],"sum_hessian":[8E1,7.9E1,1E0,1E0,7.8E1,2.8E1,5E1,2.3E1,5E0,4E0,4.6E1,1.1E1,1.2E1,3E0,2E0,1E0,3E0,1.7E1,2.9E1,7E0,4E0,2E0,1E1,2E0,1E0,2E0,1E0,1.3E1,4E0,2.4E1,5E0],"tree_param":{"num_deleted":"0","num_feature":"5","num_nodes":"31","size_leaf_vector":"1"}},{"base_weights":[4.7902708E-4,1.6409207E-2,-4.6674665E-3,2.1096398E-3,7.308006E-2,-6.952604E-2,-1.346747E-3,1.6950766E-2,-2.792422E-2,-6.795502E-3,3.376236E-2,-2.5367262E-2,-5.919457E-3,1.473672E-2,-9.7568985E-3,-5.967617E-4,4.1636657E-2,-5.5174828E-2,1.7717997E-2,-3.3239636E-3,4.4500828E-2,-2.7427483E-2,-3.0526612E-3,6.7883492E-3,-1.9057084E-2,4.2930604E-3,1.6525269E-2,-4.423428E-3,-1.912098E-2,1.4225007E-3,6.5505984E-3,1.5671069E-3,-1.0036183E-2,2.6554013E-2,3.90625E-4,4.055055E-2,-1.0888013E-2,-1.8442154E-3,-7.6843263E-3,3.1754903E-3,-2.302388E-3,4.187012E-3,-3.9916993E-3,2.4366379E-2,-2.7036667E-5,-5.6479946E-3,1.1200104E-2],"categories":[],"categories_nodes":[],"categories_segments":[],"categories_sizes":[],"default_left":[0,0,0,0,0,0,0,0,0,0,0,0,0,0,0,0,0,0,0,0,0,0,0,0,0,0,0,0,0,0,0,0,0,0,0,0,0,0,0,0,0,0,0,0,0,0,0],"id":31,"left_children":[1,3,5,7,9,11,13,15,17,-1,-1,-1,-1,19,21,23,25,27,29,31,33,-1,35,-1,37,-1,-1,-1,-1,-1,-1,39,-1,-1,41,43,45,-1,-1,-1,-1,-1,-1,-1,-1,-1,-1],"loss_changes":[6.7173396E-3,1.6053202E-2,1.3259748E-2,8.050854E-3,1.765998E-2,5.770093E-4,8.259648E-3,5.222963E-3,8.440256E-3,0E0,0E0,0E0,0E0,1.143668E-2,2.162179E-2,3.861088E-3,1.0491069E-3,4.448304E-4,5.674758E-5,2.1155758E-3,1.5496643E-2,0E0,1.3424081E-2,0E0,2.6580459E-4,0E0,0E0,0E0,0E0,0E0,0E0,1.1646643E-3,0E0,0E0,1.1147279E-3,9.924631E-3,1.3335746E-2,0E0,0E0,0E0,0E0,0E0,0E0,0E0,0E0,0E0,0E0],"parents":[2147483647,0,0,1,1,2,2,3,3,4,4,5,5,6,6,7,7,8,8,13,13,14,14,15,15,16,16,17,17,18,18,19,19,20,20,22,22,24,24,31,31,34,34,35,35,36,36],"right_children":[2,4,6,8,10,12,14,16,18,-1,-1,-1,-1,20,22,24,26,28,30,32,34,-1,36,-1,38,-1,-1,-1,-1,-1,-1,40,-1,-1,42,44,46,-1,-1,-1,-1,-1,-1,-1,-1,-1,-1],"split_conditions":[2.5144243E-1,2.3823616E-1,2.5606832E-1,5.343463E-1,7.620038E-2,3.9298946E-1,3.3655423E-1,8.4209144E-1,5.912978E-1,-6.795502E-3,3.376236E-2,-2.5367262E-2,-5.919457E-3,2.4215993E-1,4.045081E-1,4.8674214E-1,2.0907162E-1,4.8037007E-1,7.370356E-1,9.7889286E-1,3.4187967E-1,-2.7427483E-2,2.1680911E-1,6.7883492E-3,3.3025253E-1,4.2930604E-3,1.6525269E-2,-4.423428E-3,-1.912098E-2,1.4225007E-3,6.5505984E-3,7.543455E-2,-1.0036183E-2,2.6554013E-2,3.5864678E-1,6.1585116E-1,8.8046783E-1,-1.8442154E-3,-7.6843263E-3,3.1754903E-3,-2.302388E-3,4.187012E-3,-3.9916993E-3,2.4366379E-2,-2.7036667E-5,-5.6479946E-3,1.1200104E-2],"split_indices":[3,3,3,4,0,0,2,1,0,0,0,0,0,2,2,1,0,1,0,0,1,0,4,0,2,0,0,0,0,0,0,2,0,0,0,2,0,0,0,0,0,0,0,0,0,0,0],"split_type":[0,0,0,0,0,0,0,0,0,0,0,0,0,0,0,0,0,0,0,0,0,0,0,0,0,0,0,0,0,0,0,0,0,0,0,0,0,0,0,0,0,0,0,0,0,0,0],"sum_hessian":[8E1,1.9E1,6.1E1,1.6E1,3E0,2E0,5.9E1,1.1E1,5E0,1E0,2E0,1E0,1E0,2E1,3.9E1,7E0,4E0,3E0,2E0,1.3E1,7E0,2E0,3.7E1,3E0,4E0,2E0,2E0,1E0,2E0,1E0,1E0,1.2E1,1E0,3E0,4E0,5E0,3.2E1,2E0,2E0,6E0,6E0,2E0,2E0,2E0,3E0,2.8E1,4E0],"tree_param":{"num_deleted":"0","num_feature":"5","num_nodes":"47","size_leaf_vector":"1"}},{"base_weights":[5.6059565E-4,2.1637281E-2,-3.0605588E-3,8.574295E-3,1.7390443E-2,1.4555987E-2,-8.549832E-3,-5.7761194E-3,1.3805602E-2,-1.50973E-3,2.7009774E-2,-1.9778028E-2,1.0036287E-2,-8.94165E-3,8.000851E-3,-2.1108355E-2,1.3901393E-2,-1.5807007E-2,-2.2623254E-2,5.6111146E-2,-4.105512E-3,1.7063142E-3,-4.714203E-3,-1.9683838E-3,-1.0491371E-2,2.5944471E-2,-1.2366486E-2,-2.8847286E-2,6.4739813E-3,-3.277588E-3,2.2680474E-2,1.6742134E-2,-1.13379955E-2,1.9866945E-3,-2.1118165E-3,2.2939683E-3,1.2699223E-2,-1.2006951E-2,-2.3337774E-4,8.686066E-3,-3.3584835E-3,-1.8567849E-2,9.1511865E-5],"categories":[],"categories_nodes":[],"categories_segments":[],"categories_sizes":[],"default_left":[0,0,0,0,0,0,0,0,0,0,0,0,0,0,0,0,0,0,0,0,0,0,0,0,0,0,0,0,0,0,0,0,0,0,0,0,0,0,0,0,0,0,0],"id":32,"left_children":[1,3,5,7,-1,9,11,-1,13,15,-1,17,19,21,-1,23,25,27,-1,29,31,-1,-1,33,-1,35,-1,37,39,-1,-1,-1,41,-1,-1,-1,-1,-1,-1,-1,-1,-1,-1],"loss_changes":[6.248299E-3,5.1980377E-3,6.893593E-3,1.7215784E-3,0E0,2.0749878E-2,1.146768E-2,0E0,2.8720347E-3,4.823988E-3,0E0,6.3192258E-3,1.3913574E-2,4.8567797E-4,0E0,1.7885093E-3,7.04413E-3,9.774917E-3,0E0,7.3588137E-3,7.999131E-3,0E0,0E0,2.208709E-4,0E0,2.0749918E-3,0E0,6.556563E-3,5.487602E-3,0E0,0E0,0E0,9.436667E-3,0E0,0E0,0E0,0E0,0E0,0E0,0E0,0E0,0E0,0E0],"parents":[2147483647,0,0,1,1,2,2,3,3,5,5,6,6,8,8,9,9,11,11,12,12,13,13,15,15,16,16,17,17,19,19,20,20,23,23,25,25,27,27,28,28,32,32],"right_children":[2,4,6,8,-1,10,12,-1,14,16,-1,18,20,22,-1,24,26,28,-1,30,32,-1,-1,34,-1,36,-1,38,40,-1,-1,-1,42,-1,-1,-1,-1,-1,-1,-1,-1,-1,-1],"split_conditions":[1.2768973E-1,8.313715E-1,2.5144243E-1,9.9984884E-2,1.7390443E-2,2.3823616E-1,6.7114353E-1,-5.7761194E-3,5.3485297E-2,3.966516E-1,2.7009774E-2,8.877701E-1,7.3164773E-1,3.8834736E-2,8.000851E-3,2.5620693E-1,7.8466827E-1,5.6603724E-1,-2.2623254E-2,2.5299016E-1,3.2434502E-1,1.7063142E-3,-4.714203E-3,2.0907162E-1,-1.0491371E-2,6.364036E-1,-1.2366486E-2,6.816137E-1,4.7621068E-1,-3.277588E-3,2.2680474E-2,1.6742134E-2,3.8826838E-1,1.9866945E-3,-2.1118165E-3,2.2939683E-3,1.2699223E-2,-1.2006951E-2,-2.3337774E-4,8.686066E-3,-3.3584835E-3,-1.8567849E-2,9.1511865E-5],"split_indices":[0,3,3,4,0,3,4,0,0,0,0,3,4,0,0,0,2,3,0,0,3,0,0,0,0,1,0,0,2,0,0,0,3,0,0,0,0,0,0,0,0,0,0],"split_type":[0,0,0,0,0,0,0,0,0,0,0,0,0,0,0,0,0,0,0,0,0,0,0,0,0,0,0,0,0,0,0,0,0,0,0,0,0,0,0,0,0,0,0],"sum_hessian":[8E1,1.1E1,6.9E1,9E0,2E0,1.6E1,5.3E1,1E0,8E0,1.4E1,2E0,3.3E1,2E1,3E0,5E0,6E0,8E0,3.2E1,1E0,4E0,1.6E1,1E0,2E0,3E0,3E0,7E0,1E0,2E1,1.2E1,1E0,3E0,1E0,1.5E1,1E0,2E0,4E0,3E0,1.4E1,6E0,5E0,7E0,2E0,1.3E1],"tree_param":{"num_deleted":"0","num_feature":"5","num_nodes":"43","size_leaf_vector":"1"}},{"base_weights":[6.85633E-4,1.3904572E-2,-4.6451093E-4,5.4707105E-4,-1.20569235E-2,-7.817014E-3,5.5545806E-3,4.4202805E-4,-3.5017014E-2,5.4373264E-2,1.2816165E-3,-1.7578471E-2,1.45694185E-2,5.317688E-3,-6.659746E-2,2.4052048E-2,5.7146074E-3,1.2497049E-2,-6.110619E-3,5.297979E-4,-2.0925712E-2,-5.309677E-3,6.426716E-3,3.082657E-3,-1.4333725E-3,-2.599392E-2,-9.67598E-4,6.3376236E-3,-4.766235E-3,-3.5013945E-3,3.909956E-3],"categories":[],"categories_nodes":[],"categories_segments":[],"categories_sizes":[],"default_left":[0,0,0,0,0,0,0,0,0,0,0,0,0,0,0,0,0,0,0,0,0,0,0,0,0,0,0,0,0,0,0],"id":33,"left_children":[1,-1,3,5,-1,7,9,11,13,15,17,19,21,23,25,-1,-1,27,29,-1,-1,-1,-1,-1,-1,-1,-1,-1,-1,-1,-1],"loss_changes":[4.275564E-3,0E0,3.236813E-3,3.3521957E-3,0E0,6.754857E-3,1.0360338E-2,6.366092E-3,9.270661E-3,2.1183286E-3,3.972999E-3,1.1225221E-2,3.4750276E-3,2.493047E-4,4.8027113E-3,0E0,0E0,4.9889525E-3,3.2392484E-3,0E0,0E0,0E0,0E0,0E0,0E0,0E0,0E0,0E0,0E0,0E0,0E0],"parents":[2147483647,0,0,2,2,3,3,5,5,6,6,7,7,8,8,9,9,10,10,11,11,12,12,13,13,14,14,17,17,18,18],"right_children":[2,-1,4,6,-1,8,10,12,14,16,18,20,22,24,26,-1,-1,28,30,-1,-1,-1,-1,-1,-1,-1,-1,-1,-1,-1,-1],"split_conditions":[2.7616773E-2,1.3904572E-2,9.717121E-1,3.7228277E-1,-1.20569235E-2,2.7473179E-1,3.8539663E-1,4.4778317E-1,1.8286599E-1,2.5086054E-1,4.6467382E-1,3.3655423E-1,4.0383616E-1,1.2768973E-1,3.9298946E-1,2.4052048E-2,5.7146074E-3,7.2093993E-1,9.3664813E-1,5.297979E-4,-2.0925712E-2,-5.309677E-3,6.426716E-3,3.082657E-3,-1.4333725E-3,-2.599392E-2,-9.67598E-4,6.3376236E-3,-4.766235E-3,-3.5013945E-3,3.909956E-3],"split_indices":[0,0,4,4,0,4,4,2,0,0,1,2,1,0,0,0,0,3,1,0,0,0,0,0,0,0,0,0,0,0,0],"split_type":[0,0,0,0,0,0,0,0,0,0,0,0,0,0,0,0,0,0,0,0,0,0,0,0,0,0,0,0,0,0,0],"sum_hessian":[8E1,1E0,7.9E1,7.8E1,1E0,2.9E1,4.9E1,2.3E1,6E0,3E0,4.6E1,1E1,1.3E1,3E0,3E0,1E0,2E0,1.8E1,2.8E1,8E0,2E0,2E0,1.1E1,2E0,1E0,2E0,1E0,1.4E1,4E0,2.2E1,6E0],"tree_param":{"num_deleted":"0","num_feature":"5","num_nodes":"31","size_leaf_vector":"1"}},{"base_weights":[3.443353E-4,1.5866756E-2,-2.3215702E-3,5.123986E-3,1.0821391E-2,7.419673E-3,-6.647811E-3,-8.490086E-3,1.3346036E-2,-6.861959E-3,2.8811136E-2,-2.333994E-2,-3.5446484E-3,9.879112E-4,-4.054642E-3,-1.7709733E-3,5.512962E-3,-2.9821714E-2,9.206984E-3,-7.255554E-3,2.2712518E-2,-2.0254282E-2,2.5878483E-3,7.858276E-3,-1.5187884E-2,-1.3313293E-3,6.8138125E-3,1.1133671E-2,-8.806801E-3,1.8348694E-2,-3.3670045E-2,-1.2022355E-2,1.4877128E-2,3.8898468E-3,-3.5362245E-4,-3.3099176E-3,8.4468845E-4,-6.2427524E-4,7.6166154E-3,-3.7367821E-3,9.830667E-3,-5.721474E-3,-1.5239955E-2,1.2788773E-4,-1.0474778E-2,1.8120462E-2,-8.372069E-5],"categories":[],"categories_nodes":[],"categories_segments":[],"categories_sizes":[],"default_left":[0,0,0,0,0,0,0,0,0,0,0,0,0,0,0,0,0,0,0,0,0,0,0,0,0,0,0,0,0,0,0,0,0,0,0,0,0,0,0,0,0,0,0,0,0,0,0],"id":34,"left_children":[1,3,5,7,-1,9,11,13,15,17,19,-1,21,-1,-1,-1,-1,23,25,27,-1,29,31,33,-1,35,-1,37,-1,39,41,43,45,-1,-1,-1,-1,-1,-1,-1,-1,-1,-1,-1,-1,-1,-1],"loss_changes":[3.388722E-3,2.4198047E-3,2.9993318E-3,1.1207291E-3,0E0,6.9188112E-3,1.0543238E-2,2.8136597E-4,6.894828E-4,5.439714E-3,1.5772164E-2,0E0,4.97106E-3,0E0,0E0,0E0,0E0,5.10133E-3,1.311186E-3,2.7653007E-3,0E0,7.35035E-3,6.6426178E-3,1.5376374E-4,0E0,2.7246092E-4,0E0,8.063301E-4,0E0,2.185002E-3,1.5318543E-3,4.859782E-3,1.3816395E-2,0E0,0E0,0E0,0E0,0E0,0E0,0E0,0E0,0E0,0E0,0E0,0E0,0E0,0E0],"parents":[2147483647,0,0,1,1,2,2,3,3,5,5,6,6,7,7,8,8,9,9,10,10,12,12,17,17,18,18,19,19,21,21,22,22,23,23,25,25,27,27,29,29,30,30,31,31,32,32],"right_children":[2,4,6,8,-1,10,12,14,16,18,20,-1,22,-1,-1,-1,-1,24,26,28,-1,30,32,34,-1,36,-1,38,-1,40,42,44,46,-1,-1,-1,-1,-1,-1,-1,-1,-1,-1,-1,-1,-1,-1],"split_conditions":[1.2768973E-1,6.756901E-1,2.9763517E-1,5.3485297E-2,1.0821391E-2,5.80544E-1,3.0536386E-1,3.8834736E-2,9.9984884E-2,3.966516E-1,2.3823616E-1,-2.333994E-2,3.4630433E-1,9.879112E-4,-4.054642E-3,-1.7709733E-3,5.512962E-3,2.5620693E-1,6.364036E-1,8.328441E-2,2.2712518E-2,4.7621068E-1,6.366443E-1,1.5504162E-1,-1.5187884E-2,5.8130544E-1,6.8138125E-3,3.483366E-1,-8.806801E-3,4.3439436E-1,8.291642E-1,4.8561376E-1,7.3164773E-1,3.8898468E-3,-3.5362245E-4,-3.3099176E-3,8.4468845E-4,-6.2427524E-4,7.6166154E-3,-3.7367821E-3,9.830667E-3,-5.721474E-3,-1.5239955E-2,1.2788773E-4,-1.0474778E-2,1.8120462E-2,-8.372069E-5],"split_indices":[0,3,3,0,0,2,3,0,4,0,3,0,0,0,0,0,0,0,1,3,0,2,4,0,0,0,0,0,0,3,1,4,4,0,0,0,0,0,0,0,0,0,0,0,0,0,0],"split_type":[0,0,0,0,0,0,0,0,0,0,0,0,0,0,0,0,0,0,0,0,0,0,0,0,0,0,0,0,0,0,0,0,0,0,0,0,0,0,0,0,0,0,0,0,0,0,0],"sum_hessian":[8E1,1.1E1,6.9E1,8E0,3E0,2.1E1,4.8E1,3E0,5E0,1.3E1,8E0,1E0,4.7E1,1E0,2E0,1E0,4E0,5E0,8E0,5E0,3E0,1.2E1,3.5E1,2E0,3E0,5E0,3E0,3E0,2E0,3E0,9E0,1.6E1,1.9E1,1E0,1E0,1E0,4E0,2E0,1E0,1E0,2E0,6E0,3E0,1.1E1,5E0,4E0,1.5E1],"tree_param":{"num_deleted":"0","num_feature":"5","num_nodes":"47","size_leaf_vector":"1"}},{"base_weights":[1.7406323E-4,1.0292291E-3,-1.0235882E-2,-1.3291931E-2,3.0317977E-3,-3.0693054E-2,3.4243267E-3,7.396086E-3,-9.301838E-3,-3.5978954E-3,-1.4267159E-2,-8.051872E-3,5.275345E-3,-2.0386934E-2,1.2067132E-2,7.2334292E-3,-1.465113E-2,1.5572548E-3,-3.1763078E-3,-3.079033E-3,-2.1257401E-4,-3.7997563E-3,-4.6765644E-2,2.7038438E-2,5.3499974E-3,-4.418373E-3,-3.267479E-2,-2.9741765E-3,1.6857148E-3,-1.9838907E-2,-1.2056351E-3,1.0579348E-3,1.5013996E-2,-2.411607E-3,5.5271937E-3,3.151807E-4,-9.686566E-3,-2.206564E-3,-1.666279E-2],"categories":[],"categories_nodes":[],"categories_segments":[],"categories_sizes":[],"default_left":[0,0,0,0,0,0,0,0,0,0,0,0,0,0,0,0,0,0,0,0,0,0,0,0,0,0,0,0,0,0,0,0,0,0,0,0,0,0,0],"id":35,"left_children":[1,3,-1,5,7,9,11,13,15,17,-1,19,-1,21,23,-1,25,-1,-1,-1,-1,27,29,31,33,35,37,-1,-1,-1,-1,-1,-1,-1,-1,-1,-1,-1,-1],"loss_changes":[2.410586E-3,2.334627E-3,0E0,3.0139196E-3,3.8905526E-3,2.113578E-3,1.1166167E-3,7.124126E-3,3.7492688E-3,2.3925371E-4,0E0,5.768836E-5,0E0,3.3226889E-3,4.481301E-3,0E0,2.9909702E-3,0E0,0E0,0E0,0E0,4.012356E-4,2.2174944E-3,7.397077E-3,5.924538E-3,1.8629782E-3,3.0654953E-3,0E0,0E0,0E0,0E0,0E0,0E0,0E0,0E0,0E0,0E0,0E0,0E0],"parents":[2147483647,0,0,1,1,3,3,4,4,5,5,6,6,7,7,8,8,9,9,11,11,13,13,14,14,16,16,21,21,22,22,23,23,24,24,25,25,26,26],"right_children":[2,4,-1,6,8,10,12,14,16,18,-1,20,-1,22,24,-1,26,-1,-1,-1,-1,28,30,32,34,36,38,-1,-1,-1,-1,-1,-1,-1,-1,-1,-1,-1,-1],"split_conditions":[9.717121E-1,2.4872415E-1,-1.0235882E-2,2.1272789E-1,7.4417055E-1,2.5299016E-1,1.7533027E-1,1.22087955E-1,9.1704145E-2,1.3662133E-1,-1.4267159E-2,5.5600506E-1,5.275345E-3,9.9984884E-2,3.8539663E-1,7.2334292E-3,6.7716837E-1,1.5572548E-3,-3.1763078E-3,-3.079033E-3,-2.1257401E-4,3.966516E-1,5.3937745E-1,4.393365E-1,6.7114353E-1,9.8528606E-1,3.1141332E-1,-2.9741765E-3,1.6857148E-3,-1.9838907E-2,-1.2056351E-3,1.0579348E-3,1.5013996E-2,-2.411607E-3,5.5271937E-3,3.151807E-4,-9.686566E-3,-2.206564E-3,-1.666279E-2],"split_indices":[4,1,0,2,2,0,1,4,4,0,0,0,0,4,4,0,3,0,0,0,0,0,0,2,4,2,4,0,0,0,0,0,0,0,0,0,0,0,0],"split_type":[0,0,0,0,0,0,0,0,0,0,0,0,0,0,0,0,0,0,0,0,0,0,0,0,0,0,0,0,0,0,0,0,0,0,0,0,0,0,0],"sum_hessian":[8E1,7.9E1,1E0,9E0,7E1,4E0,5E0,5.2E1,1.8E1,2E0,2E0,3E0,2E0,7E0,4.5E1,2E0,1.6E1,1E0,1E0,2E0,1E0,5E0,2E0,1.3E1,3.2E1,1.1E1,5E0,3E0,2E0,1E0,1E0,7E0,6E0,1.6E1,1.6E1,1E1,1E0,3E0,2E0],"tree_param":{"num_deleted":"0","num_feature":"5","num_nodes":"39","size_leaf_vector":"1"}},{"base_weights":[-4.7464724E-4,-1.9738222E-3,1.3452053E-2,2.5373516E-5,-1.6415277E-2,2.6276778E-2,-5.941868E-3,-1.5149192E-3,2.427864E-2,-3.3015728E-2,-2.6124318E-3,1.0021306E-2,-3.350258E-4,8.932114E-4,-2.9722217E-3,6.0554914E-4,-1.6168833E-2,1.2463761E-2,4.674276E-3,-2.396679E-3,-1.1608506E-2,-2.1414757E-3,-2.7961732E-4,-3.4408136E-3,1.425435E-2,3.3187866E-3,-2.8525162E-2,-1.8081666E-4,2.284241E-3,3.396988E-4,-4.7950746E-4,-4.4534686E-3,1.746025E-3,1.4785195E-2,2.1684647E-3,-8.666992E-4,3.291321E-3,-1.1865664E-2,2.3374557E-3],"categories":[],"categories_nodes":[],"categories_segments":[],"categories_sizes":[],"default_left":[0,0,0,0,0,0,0,0,0,0,0,0,0,0,0,0,0,0,0,0,0,0,0,0,0,0,0,0,0,0,0,0,0,0,0,0,0,0,0],"id":36,"left_children":[1,3,5,7,9,11,13,15,17,19,21,-1,-1,-1,-1,23,25,-1,27,-1,-1,-1,29,31,33,35,37,-1,-1,-1,-1,-1,-1,-1,-1,-1,-1,-1,-1],"loss_changes":[1.7177155E-3,2.1368926E-3,2.145907E-3,2.5023508E-3,1.97595E-3,1.0135509E-3,1.7097629E-4,1.9674003E-3,1.1598552E-3,2.5940593E-4,6.135142E-5,0E0,0E0,0E0,0E0,3.1418144E-3,2.021032E-3,0E0,5.113011E-5,0E0,0E0,0E0,1.1119827E-5,4.733328E-3,2.8433623E-3,2.2171027E-4,2.3105014E-3,0E0,0E0,0E0,0E0,0E0,0E0,0E0,0E0,0E0,0E0,0E0,0E0],"parents":[2147483647,0,0,1,1,2,2,3,3,4,4,5,5,6,6,7,7,8,8,9,9,10,10,15,15,16,16,18,18,22,22,23,23,24,24,25,25,26,26],"right_children":[2,4,6,8,10,12,14,16,18,20,22,-1,-1,-1,-1,24,26,-1,28,-1,-1,-1,30,32,34,36,38,-1,-1,-1,-1,-1,-1,-1,-1,-1,-1,-1,-1],"split_conditions":[9.585415E-1,9.076937E-1,4.593468E-1,8.4866977E-1,3.8826838E-1,8.604046E-1,8.442131E-1,8.83494E-1,3.7785056E-1,3.483366E-1,3.4062457E-1,1.0021306E-2,-3.350258E-4,8.932114E-4,-2.9722217E-3,6.798448E-1,9.9984884E-2,1.2463761E-2,7.370356E-1,-2.396679E-3,-1.1608506E-2,-2.1414757E-3,3.5256886E-1,4.3445185E-1,6.839638E-1,9.300168E-1,3.97572E-1,-1.8081666E-4,2.284241E-3,3.396988E-4,-4.7950746E-4,-4.4534686E-3,1.746025E-3,1.4785195E-2,2.1684647E-3,-8.666992E-4,3.291321E-3,-1.1865664E-2,2.3374557E-3],"split_indices":[1,4,0,4,3,3,0,1,0,0,1,0,0,0,0,1,4,0,0,0,0,0,0,3,1,1,0,0,0,0,0,0,0,0,0,0,0,0,0],"split_type":[0,0,0,0,0,0,0,0,0,0,0,0,0,0,0,0,0,0,0,0,0,0,0,0,0,0,0,0,0,0,0,0,0,0,0,0,0,0,0],"sum_hessian":[8E1,7.3E1,7E0,6.5E1,8E0,4E0,3E0,6.2E1,3E0,3E0,5E0,3E0,1E0,1E0,2E0,5.5E1,7E0,1E0,2E0,1E0,2E0,1E0,4E0,4.3E1,1.2E1,3E0,4E0,1E0,1E0,2E0,2E0,1.9E1,2.4E1,1E0,1.1E1,2E0,1E0,3E0,1E0],"tree_param":{"num_deleted":"0","num_feature":"5","num_nodes":"39","size_leaf_vector":"1"}},{"base_weights":[-1.7130816E-4,7.681275E-3,-8.1355573E-4,-1.8542325E-4,-7.5654034E-3,-1.5727846E-3,7.86624E-3,6.294539E-4,-1.4643236E-2,-1.3948017E-2,2.8806226E-3,-2.091535E-2,9.054184E-3,-2.0135166E-3,-1.0775757E-2,-2.6165356E-4,4.1090394E-3,-2.2108841E-3,-9.083405E-3,4.359055E-3,-2.8467178E-4],"categories":[],"categories_nodes":[],"categories_segments":[],"categories_sizes":[],"default_left":[0,0,0,0,0,0,0,0,0,0,0,0,0,0,0,0,0,0,0,0,0],"id":37,"left_children":[1,-1,3,5,-1,7,-1,9,11,13,15,17,19,-1,-1,-1,-1,-1,-1,-1,-1],"loss_changes":[1.3617278E-3,0E0,1.2216624E-3,2.9354023E-3,0E0,2.1968202E-3,0E0,2.2060578E-3,1.8243336E-3,1.1898294E-3,2.3662215E-3,9.1828033E-4,1.781185E-4,0E0,0E0,0E0,0E0,0E0,0E0,0E0,0E0],"parents":[2147483647,0,0,2,2,3,3,5,5,7,7,8,8,9,9,10,10,11,11,12,12],"right_children":[2,-1,4,6,-1,8,-1,10,12,14,16,18,20,-1,-1,-1,-1,-1,-1,-1,-1],"split_conditions":[2.7616773E-2,7.681275E-3,9.8528606E-1,9.4285357E-1,-7.5654034E-3,8.009493E-1,7.86624E-3,2.4872415E-1,8.766615E-1,2.4108483E-1,6.816137E-1,3.7228277E-1,5.8193594E-2,-2.0135166E-3,-1.0775757E-2,-2.6165356E-4,4.1090394E-3,-2.2108841E-3,-9.083405E-3,4.359055E-3,-2.8467178E-4],"split_indices":[0,0,2,2,0,2,0,1,1,1,0,4,0,0,0,0,0,0,0,0,0],"split_type":[0,0,0,0,0,0,0,0,0,0,0,0,0,0,0,0,0,0,0,0,0],"sum_hessian":[8E1,1E0,7.9E1,7.8E1,1E0,7.5E1,3E0,6.5E1,1E1,8E0,5.7E1,8E0,2E0,7E0,1E0,4.3E1,1.4E1,4E0,4E0,1E0,1E0],"tree_param":{"num_deleted":"0","num_feature":"5","num_nodes":"21","size_leaf_vector":"1"}},{"base_weights":[-2.2075794E-4,3.0544116E-3,-4.3995646E-3,-1.44074755E-2,5.535312E-3,-1.6155912E-2,-1.4479501E-3,-1.7986298E-3,-7.925034E-3,1.5185714E-2,-6.162937E-4,4.3065445E-3,-1.1517598E-2,1.3641358E-3,-1.6288758E-3,-2.6095996E-4,4.0973663E-2,9.729957E-3,-6.6660712E-3,-5.112966E-3,3.1847317E-2,-2.5081253E-2,-2.7025011E-3,-1.1892319E-2,1.6075134E-2,5.5376687E-3,1.7192174E-2,-5.2371025E-3,1.689257E-2,-1.3772011E-2,3.049612E-3,3.5036404E-3,-1.9153867E-2,3.638954E-2,1.37043E-3,1.484871E-4,-9.479714E-3,-4.9449923E-3,3.5896301E-3,2.433014E-3,-4.9733166E-3,1.4823915E-3,6.555176E-3,-8.900643E-4,3.3820153E-3,-2.743721E-3,9.7332004E-4,6.5446473E-3,9.1705326E-4,-1.0502816E-3,-1.097126E-2,-2.194977E-3,1.6727175E-3,-1.2518406E-3,4.5255665E-3,-8.540841E-3,8.2702644E-4,3.2592774E-3,1.201644E-2,4.466057E-3,-2.3231507E-4],"categories":[],"categories_nodes":[],"categories_segments":[],"categories_sizes":[],"default_left":[0,0,0,0,0,0,0,0,0,0,0,0,0,0,0,0,0,0,0,0,0,0,0,0,0,0,0,0,0,0,0,0,0,0,0,0,0,0,0,0,0,0,0,0,0,0,0,0,0,0,0,0,0,0,0,0,0,0,0,0,0],"id":38,"left_children":[1,3,5,7,9,-1,11,13,-1,15,17,19,21,-1,-1,23,25,27,29,31,33,35,37,39,41,43,-1,45,47,49,51,53,55,57,-1,-1,-1,-1,59,-1,-1,-1,-1,-1,-1,-1,-1,-1,-1,-1,-1,-1,-1,-1,-1,-1,-1,-1,-1,-1,-1],"loss_changes":[1.1220285E-3,2.0725254E-3,5.176856E-3,8.610267E-4,2.443343E-3,0E0,2.0777017E-3,1.16853524E-4,0E0,6.3841008E-3,1.6922661E-3,6.1295084E-3,1.4865622E-3,0E0,0E0,2.2812912E-3,3.1554317E-3,1.1605003E-3,1.2156633E-3,2.244837E-3,5.7721836E-4,8.491422E-4,8.395647E-4,7.9047994E-4,2.1354412E-4,1.7978583E-4,0E0,1.6227677E-4,4.1009858E-4,2.2136546E-3,2.5028488E-4,1.1298115E-3,1.5072576E-3,3.2618176E-5,0E0,0E0,0E0,0E0,3.5663688E-4,0E0,0E0,0E0,0E0,0E0,0E0,0E0,0E0,0E0,0E0,0E0,0E0,0E0,0E0,0E0,0E0,0E0,0E0,0E0,0E0,0E0,0E0],"parents":[2147483647,0,0,1,1,2,2,3,3,4,4,6,6,7,7,9,9,10,10,11,11,12,12,15,15,16,16,17,17,18,18,19,19,20,20,21,21,22,22,23,23,24,24,25,25,27,27,28,28,29,29,30,30,31,31,32,32,33,33,38,38],"right_children":[2,4,6,8,10,-1,12,14,-1,16,18,20,22,-1,-1,24,26,28,30,32,34,36,38,40,42,44,-1,46,48,50,52,54,56,58,-1,-1,-1,-1,60,-1,-1,-1,-1,-1,-1,-1,-1,-1,-1,-1,-1,-1,-1,-1,-1,-1,-1,-1,-1,-1,-1],"split_conditions":[5.3432745E-1,2.5416365E-1,5.3937745E-1,2.0306122E-1,3.2434502E-1,-1.6155912E-2,7.3164773E-1,1.3662133E-1,-7.925034E-3,2.3668519E-1,3.080608E-1,6.366443E-1,3.8826838E-1,1.3641358E-3,-1.6288758E-3,8.4209144E-1,1.5504162E-1,5.166963E-1,7.495783E-1,4.9603745E-1,6.182539E-1,1.6967991E-1,4.7716126E-2,1.2768973E-1,2.0907162E-1,7.620038E-2,1.7192174E-2,3.97572E-1,4.852799E-1,6.2435406E-1,3.896313E-2,3.3025253E-1,6.798448E-1,5.4254025E-1,1.37043E-3,1.484871E-4,-9.479714E-3,-4.9449923E-3,3.032655E-1,2.433014E-3,-4.9733166E-3,1.4823915E-3,6.555176E-3,-8.900643E-4,3.3820153E-3,-2.743721E-3,9.7332004E-4,6.5446473E-3,9.1705326E-4,-1.0502816E-3,-1.097126E-2,-2.194977E-3,1.6727175E-3,-1.2518406E-3,4.5255665E-3,-8.540841E-3,8.2702644E-4,3.2592774E-3,1.201644E-2,4.466057E-3,-2.3231507E-4],"split_indices":[0,1,0,1,3,0,4,0,0,3,4,4,3,0,0,1,0,3,4,3,1,1,2,0,0,0,0,0,2,1,0,2,1,0,0,0,0,0,1,0,0,0,0,0,0,0,0,0,0,0,0,0,0,0,0,0,0,0,0,0,0],"split_type":[0,0,0,0,0,0,0,0,0,0,0,0,0,0,0,0,0,0,0,0,0,0,0,0,0,0,0,0,0,0,0,0,0,0,0,0,0,0,0,0,0,0,0,0,0,0,0,0,0,0,0,0,0,0,0,0,0,0,0,0,0],"sum_hessian":[8E1,4.5E1,3.5E1,5E0,4E1,1E0,3.4E1,3E0,2E0,1.5E1,2.5E1,2.2E1,1.2E1,1E0,2E0,1E1,5E0,9E0,1.6E1,1.7E1,5E0,4E0,8E0,6E0,4E0,2E0,3E0,3E0,6E0,9E0,7E0,1.1E1,6E0,4E0,1E0,1E0,3E0,2E0,6E0,1E0,5E0,2E0,2E0,1E0,1E0,2E0,1E0,4E0,2E0,7E0,2E0,1E0,6E0,7E0,4E0,4E0,2E0,1E0,3E0,1E0,5E0],"tree_param":{"num_deleted":"0","num_feature":"5","num_nodes":"61","size_leaf_vector":"1"}},{"base_weights":[-2.0208476E-4,-8.720398E-3,1.1205002E-3,1.8651485E-3,-2.7711391E-2,8.564759E-3,3.2081603E-4,-3.7361782E-3,3.7338259E-3,-1.3732624E-2,-1.929474E-3,1.4908612E-3,-1.0422571E-2,-2.3300173E-3,8.649826E-4,4.4037864E-4,1.7138004E-2,-4.399872E-3,-5.791855E-3,2.8659664E-3,-8.736097E-3,6.206322E-3,9.7332004E-4,-3.4163476E-3,-1.5459061E-3,1.8004907E-4,3.8608552E-3,-1.5432358E-4,-8.131886E-3,4.3029786E-4,-9.052277E-4],"categories":[],"categories_nodes":[],"categories_segments":[],"categories_sizes":[],"default_left":[0,0,0,0,0,0,0,0,0,0,0,0,0,0,0,0,0,0,0,0,0,0,0,0,0,0,0,0,0,0,0],"id":39,"left_children":[1,3,5,7,9,-1,11,13,-1,-1,-1,15,17,-1,-1,19,21,-1,23,25,27,-1,-1,-1,29,-1,-1,-1,-1,-1,-1],"loss_changes":[9.2233287E-4,2.2630163E-3,1.5481756E-3,5.2063906E-4,1.2431876E-3,0E0,8.954559E-4,1.8247365E-4,0E0,0E0,0E0,1.044424E-3,5.2613846E-5,0E0,0E0,1.3827966E-3,1.3015512E-4,0E0,1.0119652E-4,1.1029139E-3,1.9494969E-3,0E0,0E0,0E0,2.1869851E-5,0E0,0E0,0E0,0E0,0E0,0E0],"parents":[2147483647,0,0,1,1,2,2,3,3,4,4,6,6,7,7,11,11,12,12,15,15,16,16,18,18,19,19,20,20,24,24],"right_children":[2,4,6,8,10,-1,12,14,-1,-1,-1,16,18,-1,-1,20,22,-1,24,26,28,-1,-1,-1,30,-1,-1,-1,-1,-1,-1],"split_conditions":[1.3318512E-1,9.9984884E-2,1.5071754E-1,5.80544E-1,3.0536386E-1,8.564759E-3,9.4013345E-1,3.966516E-1,3.7338259E-3,-1.3732624E-2,-1.929474E-3,9.0315104E-1,4.0383616E-1,-2.3300173E-3,8.649826E-4,7.4771875E-1,9.1525435E-1,-4.399872E-3,9.7661495E-1,6.816137E-1,5.4254025E-1,6.206322E-3,9.7332004E-4,-3.4163476E-3,9.7889286E-1,1.8004907E-4,3.8608552E-3,-1.5432358E-4,-8.131886E-3,4.3029786E-4,-9.052277E-4],"split_indices":[4,4,4,2,3,0,0,0,0,0,0,0,1,0,0,2,0,0,0,0,0,0,0,0,0,0,0,0,0,0,0],"split_type":[0,0,0,0,0,0,0,0,0,0,0,0,0,0,0,0,0,0,0,0,0,0,0,0,0,0,0,0,0,0,0],"sum_hessian":[8E1,1E1,7E1,7E0,3E0,1E0,6.9E1,5E0,2E0,1E0,2E0,6.3E1,6E0,3E0,2E0,6E1,3E0,2E0,4E0,4.8E1,1.2E1,2E0,1E0,1E0,3E0,4E1,8E0,9E0,3E0,1E0,2E0],"tree_param":{"num_deleted":"0","num_feature":"5","num_nodes":"31","size_leaf_vector":"1"}},{"base_weights":[-2.6684042E-4,5.520058E-3,-7.3018076E-4,4.857826E-3,-2.550344E-3,-3.380495E-4,2.5725842E-2,-2.2448221E-2,-1.4953613E-3,4.257997E-3,-9.473801E-3,-4.0683747E-4,1.0561561E-2,-7.997418E-3,-2.1042824E-3,1.759243E-2,-2.832072E-3,-1.1587143E-3,1.2073135E-2,-1.443243E-2,2.9563904E-4,6.7520146E-3,4.2743684E-4,-3.23925E-2,-1.1373803E-3,2.7058125E-3,-2.7208328E-3,1.1835098E-3,4.8530577E-3,-1.2788773E-3,-4.9203876E-3,-4.5289996E-4,5.859375E-4,-1.1672688E-2,-2.9039383E-3,8.02803E-3,-6.5059663E-4],"categories":[],"categories_nodes":[],"categories_segments":[],"categories_sizes":[],"default_left":[0,0,0,0,0,0,0,0,0,0,0,0,0,0,0,0,0,0,0,0,0,0,0,0,0,0,0,0,0,0,0,0,0,0,0,0,0],"id":40,"left_children":[1,-1,3,5,7,9,11,13,15,17,19,-1,-1,-1,-1,21,23,25,27,29,31,-1,-1,33,35,-1,-1,-1,-1,-1,-1,-1,-1,-1,-1,-1,-1],"loss_changes":[7.1401976E-4,0E0,8.2607596E-4,2.177249E-3,1.2469387E-3,7.5414113E-4,1.0746219E-3,7.936265E-6,1.5551996E-3,5.219775E-4,2.9492495E-4,0E0,0E0,0E0,0E0,2.857421E-4,2.7685233E-3,7.259295E-4,1.02959224E-4,1.0171905E-5,1.1925373E-5,0E0,0E0,6.7388406E-5,1.6116124E-3,0E0,0E0,0E0,0E0,0E0,0E0,0E0,0E0,0E0,0E0,0E0,0E0],"parents":[2147483647,0,0,2,2,3,3,4,4,5,5,6,6,7,7,8,8,9,9,10,10,15,15,16,16,17,17,18,18,19,19,20,20,23,23,24,24],"right_children":[2,-1,4,6,8,10,12,14,16,18,20,-1,-1,-1,-1,22,24,26,28,30,32,-1,-1,34,36,-1,-1,-1,-1,-1,-1,-1,-1,-1,-1,-1,-1],"split_conditions":[2.7616773E-2,5.520058E-3,2.5144243E-1,2.3823616E-1,2.5606832E-1,5.343463E-1,7.620038E-2,3.9298946E-1,2.9763517E-1,8.4209144E-1,5.912978E-1,-4.0683747E-4,1.0561561E-2,-7.997418E-3,-2.1042824E-3,3.3566007E-1,3.2255077E-1,4.8674214E-1,2.0907162E-1,4.8037007E-1,7.370356E-1,6.7520146E-3,4.2743684E-4,5.3937745E-1,3.2434502E-1,2.7058125E-3,-2.7208328E-3,1.1835098E-3,4.8530577E-3,-1.2788773E-3,-4.9203876E-3,-4.5289996E-4,5.859375E-4,-1.1672688E-2,-2.9039383E-3,8.02803E-3,-6.5059663E-4],"split_indices":[0,0,3,3,3,4,0,0,3,1,0,0,0,0,0,0,3,1,0,1,0,0,0,0,3,0,0,0,0,0,0,0,0,0,0,0,0],"split_type":[0,0,0,0,0,0,0,0,0,0,0,0,0,0,0,0,0,0,0,0,0,0,0,0,0,0,0,0,0,0,0,0,0,0,0,0,0],"sum_hessian":[8E1,1E0,7.9E1,1.9E1,6E1,1.6E1,3E0,2E0,5.8E1,1.1E1,5E0,1E0,2E0,1E0,1E0,3E0,5.5E1,7E0,4E0,3E0,2E0,2E0,1E0,2E0,5.3E1,3E0,4E0,2E0,2E0,1E0,2E0,1E0,1E0,1E0,1E0,1E0,5.2E1],"tree_param":{"num_deleted":"0","num_feature":"5","num_nodes":"37","size_leaf_vector":"1"}},{"base_weights":[-1.1851464E-4,3.3228396E-4,-5.4273605E-3,-6.4652185E-3,1.395716E-3,1.144886E-3,-2.0069122E-2,1.23125715E-2,3.6653373E-4,-2.7516682E-3,2.5669099E-3,-9.921742E-3,-1.4131546E-3,7.1748737E-3,-2.1789551E-3,-5.3568445E-3,2.3447154E-3,-1.7990113E-3,3.7002563E-4,-2.8592348E-3,-6.797791E-3,5.5162027E-3,-7.893722E-3,-3.458977E-4,3.7860873E-4,6.7634584E-4,-2.1261217E-3,5.824062E-3,6.911338E-4,2.441883E-3,-4.24277E-3],"categories":[],"categories_nodes":[],"categories_segments":[],"categories_sizes":[],"default_left":[0,0,0,0,0,0,0,0,0,0,0,0,0,0,0,0,0,0,0,0,0,0,0,0,0,0,0,0,0,0,0],"id":41,"left_children":[1,3,-1,5,7,9,11,13,15,17,-1,-1,-1,-1,-1,19,21,-1,23,25,-1,27,29,-1,-1,-1,-1,-1,-1,-1,-1],"loss_changes":[6.6227844E-4,5.873181E-4,0E0,1.1617752E-3,7.8196736E-4,2.5457816E-4,6.430652E-4,1.5366122E-3,7.4848265E-4,6.299898E-5,0E0,0E0,0E0,0E0,0E0,6.698631E-4,1.634626E-3,0E0,6.889258E-6,3.6189737E-4,0E0,1.6517524E-3,1.3173926E-3,0E0,0E0,0E0,0E0,0E0,0E0,0E0,0E0],"parents":[2147483647,0,0,1,1,3,3,4,4,5,5,6,6,7,7,8,8,9,9,15,15,16,16,18,18,19,19,21,21,22,22],"right_children":[2,4,-1,6,8,10,12,14,16,18,-1,-1,-1,-1,-1,20,22,-1,24,26,-1,28,30,-1,-1,-1,-1,-1,-1,-1,-1],"split_conditions":[9.717121E-1,1.3318512E-1,-5.4273605E-3,9.9984884E-2,2.1680911E-1,5.80544E-1,3.0536386E-1,6.1585116E-1,2.1272789E-1,4.043359E-2,2.5669099E-3,-9.921742E-3,-1.4131546E-3,7.1748737E-3,-2.1789551E-3,2.0504533E-1,8.112042E-1,-1.7990113E-3,7.620038E-2,5.618667E-1,-6.797791E-3,2.9563367E-1,1.134646E-1,-3.458977E-4,3.7860873E-4,6.7634584E-4,-2.1261217E-3,5.824062E-3,6.911338E-4,2.441883E-3,-4.24277E-3],"split_indices":[4,4,0,4,4,2,3,2,2,4,0,0,0,0,0,2,1,0,0,4,0,2,0,0,0,0,0,0,0,0,0],"split_type":[0,0,0,0,0,0,0,0,0,0,0,0,0,0,0,0,0,0,0,0,0,0,0,0,0,0,0,0,0,0,0],"sum_hessian":[8E1,7.9E1,1E0,1E1,6.9E1,7E0,3E0,5E0,6.4E1,5E0,2E0,1E0,2E0,3E0,2E0,1.6E1,4.8E1,2E0,3E0,1.5E1,1E0,3.7E1,1.1E1,1E0,2E0,7E0,8E0,6E0,3.1E1,3E0,8E0],"tree_param":{"num_deleted":"0","num_feature":"5","num_nodes":"31","size_leaf_vector":"1"}},{"base_weights":[-2.6180127E-4,4.588509E-3,-6.474495E-4,3.9242744E-3,-2.1357615E-3,-1.5673917E-4,2.0287514E-2,-5.405426E-3,2.181795E-3,-4.0314416E-3,5.95447E-3,-2.9411318E-4,8.311082E-3,-3.2465458E-3,-2.1325111E-2,1.0704279E-2,-1.3362884E-3,4.2090416E-3,-7.6477528E-3,8.716583E-3,-1.5927316E-3,-5.1122666E-3,-1.7588934E-3,-8.434296E-3,-1.4362336E-4,-1.43858595E-2,2.1465302E-2,5.950356E-3,-3.4944634E-3,2.009392E-3,-4.8866274E-4,2.8009416E-4,-2.7021137E-3,1.1268617E-3,3.0773163E-3,3.6146166E-3,-1.1217966E-3,-5.377865E-3,-1.0957718E-3,7.4146274E-3,7.822037E-4,-5.620766E-3,-1.7977323E-4],"categories":[],"categories_nodes":[],"categories_segments":[],"categories_sizes":[],"default_left":[0,0,0,0,0,0,0,0,0,0,0,0,0,0,0,0,0,0,0,0,0,0,0,0,0,0,0,0,0,0,0,0,0,0,0,0,0,0,0,0,0,0,0],"id":42,"left_children":[1,-1,3,5,7,9,11,13,15,17,19,-1,-1,21,23,25,27,29,31,33,-1,-1,35,-1,-1,37,39,-1,41,-1,-1,-1,-1,-1,-1,-1,-1,-1,-1,-1,-1,-1,-1],"loss_changes":[4.958593E-4,0E0,5.527134E-4,1.338752E-3,8.729282E-4,4.2655005E-4,6.580583E-4,1.1336714E-3,8.2383986E-4,3.599914E-4,2.6405617E-4,0E0,0E0,6.2670495E-4,5.526617E-4,2.468761E-3,9.831171E-4,6.903086E-5,1.01726415E-4,7.3376577E-6,0E0,0E0,8.654038E-4,0E0,0E0,4.8522197E-5,3.0330243E-4,0E0,8.271906E-4,0E0,0E0,0E0,0E0,0E0,0E0,0E0,0E0,0E0,0E0,0E0,0E0,0E0,0E0],"parents":[2147483647,0,0,2,2,3,3,4,4,5,5,6,6,7,7,8,8,9,9,10,10,13,13,14,14,15,15,16,16,17,17,18,18,19,19,22,22,25,25,26,26,28,28],"right_children":[2,-1,4,6,8,10,12,14,16,18,20,-1,-1,22,24,26,28,30,32,34,-1,-1,36,-1,-1,38,40,-1,42,-1,-1,-1,-1,-1,-1,-1,-1,-1,-1,-1,-1,-1,-1],"split_conditions":[2.7616773E-2,4.588509E-3,2.5144243E-1,2.3823616E-1,6.278944E-1,8.4209144E-1,7.620038E-2,5.7336706E-1,7.3164773E-1,3.664688E-1,7.8466827E-1,-2.9411318E-4,8.311082E-3,2.5606832E-1,6.798448E-1,2.5299016E-1,3.2434502E-1,6.767699E-1,8.087297E-2,2.0907162E-1,-1.5927316E-3,-5.1122666E-3,2.9763517E-1,-8.434296E-3,-1.4362336E-4,1.9091102E-1,9.1047126E-1,5.950356E-3,2.9795945E-1,2.009392E-3,-4.8866274E-4,2.8009416E-4,-2.7021137E-3,1.1268617E-3,3.0773163E-3,3.6146166E-3,-1.1217966E-3,-5.377865E-3,-1.0957718E-3,7.4146274E-3,7.822037E-4,-5.620766E-3,-1.7977323E-4],"split_indices":[0,0,3,3,4,1,0,4,4,1,2,0,0,3,1,0,3,0,2,0,0,0,3,0,0,0,0,0,1,0,0,0,0,0,0,0,0,0,0,0,0,0,0],"split_type":[0,0,0,0,